quantized_type W1[392][30] = {
{ 0.06208790838718414, 0.006890918128192425, 0.02492361143231392, -0.037899360060691833, 0.004883549176156521, 0.011248229071497917, -0.014927064068615437, -0.0027100355364382267, -0.049601826816797256, -0.058303773403167725, -0.0006573766586370766, -0.05937543511390686, -0.003912986256182194, -0.013844379223883152, -0.009378575719892979, 0.0031291323248296976, 0.022690026089549065, -0.02823607437312603, 0.007232579868286848, -0.013896983116865158, -0.026784013956785202, -0.004485183395445347, 0.14996753633022308, -0.02961038425564766, -0.013011682778596878, 0.0356752946972847, 0.029496856033802032, 0.03756137937307358, 0.0058854552917182446, -0.07253827899694443 },
{ 0.013938219286501408, 0.0061154477298259735, 0.024687614291906357, -0.03688919171690941, -5.2046289056306705e-05, 0.010389921255409718, -0.015191038139164448, -0.002232515485957265, -0.05241856351494789, -0.03691314160823822, -0.0013828636147081852, 0.032625406980514526, -0.002818668494001031, -0.014459092170000076, -0.010767609812319279, 0.0036730216816067696, 0.022150667384266853, -0.028625138103961945, 0.004121593665331602, -0.02347543276846409, -0.02401491440832615, -0.008016507141292095, -0.02816568873822689, -0.027558207511901855, -0.011117285117506981, 0.03688120096921921, 0.02979096584022045, 0.03732087463140488, 0.0059761288575828075, -0.07058310508728027 },
{ -0.13297885656356812, 0.008946407586336136, 0.025234272703528404, -0.03849312663078308, 0.003140323096886277, 0.010803673416376114, -0.014215027913451195, -0.0023638608399778605, -0.05349795147776604, 0.04588566720485687, -0.0018175942823290825, -0.060755692422389984, -0.003370977472513914, -0.015318473801016808, -0.010087522678077221, 0.003417097730562091, 0.02209239825606346, -0.03009338118135929, 0.0052694943733513355, -0.01908811368048191, -0.027376795187592506, -0.006386417895555496, 0.033753782510757446, -0.02957039326429367, -0.012319996021687984, 0.031549952924251556, 0.032677166163921356, 0.03828233852982521, 0.006075723096728325, -0.07084652036428452 },
{ -0.124272920191288, 0.005427137948572636, 0.024858301505446434, -0.03695940226316452, 0.002701612887904048, 0.009988520294427872, -0.014075295999646187, -0.0021832757629454136, -0.0552416630089283, 0.15263283252716064, -0.0006358561222441494, 0.09420255571603775, -0.005174245685338974, -0.01200986560434103, -0.01196476723998785, 0.002231727121397853, 0.023661548271775246, -0.027789006009697914, 0.004273212049156427, -0.01712193712592125, -0.025823945179581642, -0.005076097324490547, 0.0013363378820940852, -0.02714119292795658, -0.012061616405844688, 0.03110632672905922, 0.029584642499685287, 0.037678010761737823, 0.005725963972508907, -0.07052652537822723 },
{ -0.15194258093833923, 0.003199054393917322, 0.025021793320775032, -0.04059479013085365, 0.002109087537974119, 0.009636706672608852, -0.013636540621519089, -0.0027304966934025288, -0.0543803907930851, -0.08386334776878357, -0.0005271852132864296, 0.024723168462514877, -0.003460219595581293, -0.011849368922412395, -0.010496607981622219, 0.0017706063808873296, 0.023187540471553802, -0.030272185802459717, 0.005305948201566935, -0.022970974445343018, -0.027341006323695183, -0.00468488410115242, -0.06317856162786484, -0.02804185263812542, -0.009056782349944115, 0.036857299506664276, 0.03278248384594917, 0.03835489973425865, 0.006007662508636713, -0.07031984627246857 },
{ -0.011155104264616966, 0.005379277281463146, 0.02506151609122753, -0.03457183018326759, 0.0028649596497416496, 0.010795489884912968, -0.014247173443436623, -0.0024190752301365137, -0.05310925841331482, 0.06631549447774887, -0.001449983916245401, -0.007133182138204575, -0.002389902016147971, -0.013193865306675434, -0.010992300696671009, 0.002851818222552538, 0.02263876050710678, -0.02873210608959198, 0.0013749710051342845, -0.017518680542707443, -0.02510055899620056, -0.005204332061111927, 0.11832591146230698, -0.02756243199110031, 0.0006396537646651268, 0.029533574357628822, 0.02974005974829197, 0.03701666742563248, 0.005945247132331133, -0.07095840573310852 },
{ -0.03707399591803551, 0.002347478875890374, 0.024925902485847473, -0.03711223974823952, 0.0005859127850271761, 0.010640409775078297, -0.01366124115884304, -0.0025799903087317944, -0.05113523453474045, -0.2133474200963974, 4.4141193939140067e-05, -0.048169709742069244, -0.002925568725913763, -0.015789281576871872, -0.009759773500263691, 0.0023588917683809996, 0.023680659011006355, -0.02884403057396412, 0.00591083662584424, -0.01319638080894947, -0.028087666258215904, -0.011747033335268497, 0.022863857448101044, -0.02965884655714035, -0.0036778897047042847, 0.0373496487736702, 0.029915401712059975, 0.038115840405225754, 0.005930565297603607, -0.07047079503536224 },
{ 0.24734196066856384, 0.004485631361603737, 0.02494657225906849, -0.03726936876773834, 0.0011649837251752615, 0.01085730455815792, -0.014424631372094154, -0.0020607674960047007, -0.05283483490347862, 0.09033933281898499, -0.0024231767747551203, 0.12320167571306229, -0.0039803506806492805, -0.010364731773734093, -0.010044732131063938, 0.004136958625167608, 0.022425012663006783, -0.02782745100557804, 0.002854960737749934, -0.021049221977591515, -0.02412836253643036, -0.007533828727900982, -0.051149625331163406, -0.0297781340777874, -0.005264980252832174, 0.03677808493375778, 0.029626255854964256, 0.03764666989445686, 0.005817105993628502, -0.07049956917762756 },
{ 0.25024574995040894, 0.004468483850359917, 0.02496720664203167, -0.037677835673093796, 0.0038972976617515087, 0.010123621672391891, -0.013586403802037239, -0.0023390483111143112, -0.049401842057704926, 0.04434666782617569, -0.0006374994409270585, 0.022302450612187386, -0.0040428489446640015, -0.010061042383313179, -0.010684623382985592, 0.001432122546248138, 0.024826783686876297, -0.029346849769353867, 0.006995103787630796, -0.014270407147705555, -0.026103999465703964, -0.007387093268334866, -0.0001516981574241072, -0.02878158539533615, -0.011917014606297016, 0.03535078465938568, 0.029812315478920937, 0.03742430731654167, 0.005793559364974499, -0.07098501175642014 },
{ 0.1435025930404663, 0.007780028972774744, 0.024993205443024635, -0.03989424556493759, 0.004973396193236113, 0.011082710698246956, -0.015442638657987118, -0.0024407736491411924, -0.05200692266225815, 0.11673826724290848, -0.0019332292722538114, -0.05766601487994194, -0.0032756314612925053, -0.011770355515182018, -0.009910902939736843, 0.00341081153601408, 0.02277640998363495, -0.02865418791770935, 0.004432068672031164, -0.011132382787764072, -0.025816122069954872, -0.011850579641759396, 0.09263822436332703, -0.029193781316280365, -0.007034072186797857, 0.02582748979330063, 0.030296742916107178, 0.03770323470234871, 0.006002515088766813, -0.0693490132689476 },
{ 0.21098145842552185, 0.002483447315171361, 0.02498128078877926, -0.039306193590164185, 0.0024664816446602345, 0.01060925330966711, -0.014243429526686668, -0.0026086270809173584, -0.04812364652752876, 0.040445856750011444, -0.00252893497236073, -0.017738400027155876, -0.00421462208032608, -0.013075847178697586, -0.009838773868978024, 0.002118830569088459, 0.023157229647040367, -0.02930530160665512, 0.002361465012654662, -0.017350276932120323, -0.026981854811310768, -0.009577629156410694, 0.00773184048011899, -0.028515910729765892, -0.006433953996747732, 0.03986600786447525, 0.02560954913496971, 0.037549324333667755, 0.005905594676733017, -0.06993015855550766 },
{ -0.11084989458322525, 0.006016734521836042, 0.024926481768488884, -0.03877833113074303, 0.005057079717516899, 0.011380365118384361, -0.015044019557535648, -0.0025304669979959726, -0.04898850992321968, -0.13186442852020264, -0.0004619935934897512, -0.13071265816688538, -0.005014732014387846, -0.012319114059209824, -0.009562601335346699, 0.0029980367980897427, 0.02230186201632023, -0.02734176442027092, 0.00969580840319395, -0.01058892346918583, -0.026363447308540344, -0.012676126323640347, -0.09299086034297943, -0.026732800528407097, -0.012145988643169403, 0.03710724413394928, 0.03325917571783066, 0.03785805404186249, 0.0059563638642430305, -0.06753360480070114 },
{ -0.026313165202736855, 0.0028233954217284918, 0.02561568282544613, -0.03874015063047409, 0.002420928096398711, 0.011700818315148354, -0.014683272689580917, -0.002439220203086734, -0.05198047310113907, 0.10200861841440201, -0.0017027377616614103, 0.04440775513648987, -0.002848177682608366, -0.014030189253389835, -0.00967985950410366, 0.001614567474462092, 0.024637781083583832, -0.028679225593805313, 0.0009255275945179164, -0.009340723045170307, -0.026822760701179504, -0.012047579512000084, 0.2001529037952423, -0.027385085821151733, -0.001958805602043867, 0.031223909929394722, 0.03130268678069115, 0.037117019295692444, 0.00631962064653635, -0.06962869316339493 },
{ 0.03959868475794792, 0.004755863454192877, 0.02628324367105961, -0.038106102496385574, 0.006995150353759527, 0.010452639311552048, -0.014257660135626793, -0.00268677924759686, -0.05600925162434578, -0.027085185050964355, -0.0038574053905904293, 0.0894603580236435, -0.0038694448303431273, -0.011146903969347477, -0.011792166158556938, 0.0026051632594317198, 0.024338042363524437, -0.0295158252120018, 0.0031765825115144253, -0.019142797216773033, -0.02608124539256096, -0.01034629624336958, 0.09929002076387405, -0.024168696254491806, -0.009153672493994236, 0.042666491121053696, 0.027422389015555382, 0.03661614656448364, 0.006489976309239864, -0.070195771753788 },
{ -0.005922012031078339, 0.0054526664316654205, 0.024964015930891037, -0.039123404771089554, 0.0014917771331965923, 0.010969149880111217, -0.013915149495005608, -0.002356288954615593, -0.052557628601789474, -0.07156253606081009, -0.0011591207003220916, 0.09507182240486145, -0.00384319550357759, -0.011565759778022766, -0.011105336248874664, 0.002987159416079521, 0.02373887225985527, -0.029114477336406708, 0.0038507196586579084, -0.01667150668799877, -0.026252033188939095, -0.0037255622446537018, 0.09791319817304611, -0.02836550958454609, -0.007888407446444035, 0.0373598076403141, 0.030304940417408943, 0.03858724236488342, 0.005893268622457981, -0.0699092373251915 },
{ 0.10482990741729736, 0.005293628200888634, 0.024889370426535606, -0.03776927664875984, 0.004076120909303427, 0.011143200099468231, -0.01473896112293005, -0.0023098348174244165, -0.05457180365920067, 0.29024913907051086, -0.0014678981387987733, -0.03616129234433174, -0.0036327936686575413, -0.013776436448097229, -0.009628941304981709, 0.0030175589490681887, 0.02244347147643566, -0.03011949732899666, 0.0005664700292982161, -0.016439808532595634, -0.026045456528663635, -0.007133866660296917, -0.06341518461704254, -0.028099853545427322, -0.006869510747492313, 0.03741060197353363, 0.031141970306634903, 0.03782742843031883, 0.00580538809299469, -0.07162965089082718 },
{ -0.07083386182785034, 0.006832395680248737, 0.025031568482518196, -0.03958917781710625, 0.0032453685998916626, 0.010027111507952213, -0.014524206519126892, -0.0020132416393607855, -0.05060978978872299, 0.04174218699336052, 0.000248844939051196, -0.2263002097606659, -0.00460748141631484, -0.012607353739440441, -0.009034075774252415, 0.0022025927901268005, 0.023658225312829018, -0.027249211445450783, 0.004649695474654436, -0.013464351184666157, -0.025147011503577232, -0.007653211243450642, 0.018061025068163872, -0.028454458341002464, -0.013352231122553349, 0.03699300438165665, 0.03072980046272278, 0.03800755739212036, 0.005928386934101582, -0.07208216190338135 },
{ -0.10613169521093369, 0.008158551529049873, 0.024947218596935272, -0.03782755509018898, 0.002639520214870572, 0.011293760500848293, -0.01511672604829073, -0.0025924600195139647, -0.04870696738362312, 0.13213738799095154, -0.0011104964651167393, 0.1079074963927269, -0.00551743246614933, -0.012543458491563797, -0.009800734929740429, 0.002836009254679084, 0.022025983780622482, -0.029627371579408646, 0.003100543050095439, -0.02754443883895874, -0.02544313855469227, -0.0006193422595970333, 0.011857610195875168, -0.028673842549324036, -0.0044931978918612, 0.03572183847427368, 0.03102033957839012, 0.03742954507470131, 0.006030414253473282, -0.07085198163986206 },
{ -0.052412860095500946, 0.004995884373784065, 0.0249588955193758, -0.03837565705180168, 0.002556378720328212, 0.011066602542996407, -0.013939637690782547, -0.0024174728896468878, -0.05225847288966179, -0.12458379566669464, -0.00021160706819500774, 0.09621929377317429, -0.0031418832950294018, -0.013742298819124699, -0.010340365581214428, 0.0032497646752744913, 0.02261779084801674, -0.02919650636613369, 0.005878243129700422, -0.01689397171139717, -0.026046419516205788, -0.007882154546678066, 0.11079181730747223, -0.028550686314702034, -0.0038288538344204426, 0.035497844219207764, 0.03085591271519661, 0.03811231628060341, 0.006010578945279121, -0.07066662609577179 },
{ 0.04868951439857483, 0.0069526261650025845, 0.024932365864515305, -0.0387386791408062, 0.0031834258697927, 0.010142857208848, -0.014119544997811317, -0.0028096528258174658, -0.05213187262415886, -0.1105581521987915, -0.0013690022751688957, 0.07106274366378784, -0.00609812093898654, -0.013194301165640354, -0.010231456719338894, 0.003345131641253829, 0.02387251891195774, -0.02797549217939377, 0.004678255412727594, -0.008607013151049614, -0.025655388832092285, -0.0005559760029427707, -0.05390399321913719, -0.028205472975969315, -0.011232324875891209, 0.033379584550857544, 0.02945447340607643, 0.03809592127799988, 0.005963290575891733, -0.06950875371694565 },
{ 0.08163328468799591, 0.005647954531013966, 0.02509153075516224, -0.038437798619270325, 0.0044380235485732555, 0.011094659566879272, -0.014249291270971298, -0.0025732002686709166, -0.051955610513687134, -0.02669743075966835, -0.001482514082454145, -0.05637729912996292, -0.004193644039332867, -0.012068083509802818, -0.009379188530147076, 0.0026526423171162605, 0.02369553968310356, -0.029314100742340088, 0.0033690815325826406, -0.021739833056926727, -0.02716078609228134, -0.012757283635437489, -0.09946900606155396, -0.027850760146975517, -0.010909602977335453, 0.037799395620822906, 0.031109854578971863, 0.037814076989889145, 0.005829406902194023, -0.0701710656285286 },
{ -0.016880152747035027, 0.00384050072170794, 0.024971503764390945, -0.03763825446367264, 0.0011315084993839264, 0.010768924839794636, -0.015424092300236225, -0.0022746766917407513, -0.0558074526488781, -0.10261894762516022, -0.001999217551201582, 0.07647401094436646, -0.003243575803935528, -0.011703504249453545, -0.010124609805643559, 0.002819041023030877, 0.023035261780023575, -0.030153555795550346, 0.002609595423564315, -0.023375125601887703, -0.026408910751342773, -0.006037706509232521, 0.08332131803035736, -0.028759639710187912, -0.009256960824131966, 0.03739058971405029, 0.02874806895852089, 0.037869662046432495, 0.005779527593404055, -0.07151345908641815 },
{ 0.09037771075963974, 0.006170869804918766, 0.024949340149760246, -0.037927981466054916, 0.0041332850232720375, 0.01088055782020092, -0.01456359587609768, -0.0024414260406047106, -0.05389399081468582, -0.21044518053531647, -0.0005958148394711316, 0.19522255659103394, -0.003965902142226696, -0.011809488758444786, -0.010262210853397846, 0.003096566069871187, 0.023380335420370102, -0.02679510787129402, 0.0031640788074582815, -0.01727243699133396, -0.02602456696331501, -0.011628796346485615, -0.011340601369738579, -0.029277218505740166, -0.0055837673135101795, 0.025018123909831047, 0.028292637318372726, 0.03768390044569969, 0.005808652378618717, -0.07056812942028046 },
{ 0.015242129564285278, 0.000256420491496101, 0.02502748928964138, -0.03820332512259483, 0.0048895180225372314, 0.010560081340372562, -0.015039126388728619, -0.0027062525041401386, -0.05254518240690231, 0.09344910085201263, -0.0012624477967619896, -0.0936836302280426, -0.0032278806902468204, -0.011445589363574982, -0.010596535168588161, 0.003468696726486087, 0.023495228961110115, -0.02834295853972435, 0.006515374407172203, -0.014947553165256977, -0.02656581625342369, -0.008667423389852047, 0.16406451165676117, -0.029207853600382805, -0.006535750813782215, 0.03510357439517975, 0.028413057327270508, 0.037619058042764664, 0.005822665058076382, -0.07066570222377777 },
{ 0.018040379509329796, 0.005715661216527224, 0.024856919422745705, -0.038098882883787155, 0.00041820615297183394, 0.010357811115682125, -0.014132993295788765, -0.0023345283698290586, -0.0498243048787117, -0.035320792347192764, -0.0019080279162153602, 0.17550261318683624, -0.00456512626260519, -0.012090136297047138, -0.009877880103886127, 0.0027564133051782846, 0.023959562182426453, -0.029095130041241646, 0.002740823430940509, -0.01381876040250063, -0.02641182206571102, -0.0023466208949685097, 0.1499500423669815, -0.026604095473885536, -0.010037140920758247, 0.03534989804029465, 0.02942996844649315, 0.03764040023088455, 0.005783127620816231, -0.07087777554988861 },
{ -0.04038414731621742, 0.011497121304273605, 0.024847226217389107, -0.03689350560307503, 0.006525243632495403, 0.010383951477706432, -0.014299239963293076, -0.0020843485835939646, -0.051414988934993744, 0.16123047471046448, -0.0021594141144305468, -0.13493464887142181, -0.004061734303832054, -0.011623374186456203, -0.00964581873267889, 0.0017506472067907453, 0.023665999993681908, -0.02981562353670597, 0.0032015300821512938, -0.0176165122538805, -0.027647104114294052, -0.013849068433046341, 0.03142697364091873, -0.027971133589744568, -0.013866364024579525, 0.03191005438566208, 0.029218826442956924, 0.037928711622953415, 0.006003548391163349, -0.07056353241205215 },
{ 0.07056928426027298, 0.0036920933052897453, 0.025028740987181664, -0.03461857885122299, 0.005898385774344206, 0.010154449380934238, -0.015055404044687748, -0.0022262451238930225, -0.051654670387506485, -0.10768664628267288, -0.0014983151340857148, 0.07206506282091141, -0.004913613200187683, -0.014023964293301105, -0.01019223127514124, 0.0022068226244300604, 0.02318006567656994, -0.027758285403251648, 0.00284307892434299, -0.01537416409701109, -0.02521546557545662, -0.005474250763654709, -0.013318963348865509, -0.028700944036245346, -0.011326071806252003, 0.03250863403081894, 0.030596472322940826, 0.038128964602947235, 0.005930570885539055, -0.07044357061386108 },
{ 0.19616791605949402, 0.004887142218649387, 0.02493460662662983, -0.03710056468844414, 0.0009551202529110014, 0.011199910193681717, -0.015193118713796139, -0.0023668985813856125, -0.054556991904973984, 0.07918491959571838, -0.0011899224482476711, -0.07680738717317581, -0.005486878100782633, -0.012473695911467075, -0.009120858274400234, 0.0031655009370297194, 0.02273595705628395, -0.027956221252679825, 0.0036599745508283377, -0.011688034050166607, -0.025355106219649315, -0.01349493395537138, 0.20018227398395538, -0.02917487919330597, -0.008230634033679962, 0.03932994604110718, 0.03100110962986946, 0.038057949393987656, 0.005965698044747114, -0.07075000554323196 },
{ 0.05630837380886078, 0.00412849010899663, 0.02494858391582966, -0.03848160058259964, 0.00538291223347187, 0.009797967970371246, -0.014412099495530128, -0.002422058954834938, -0.052313122898340225, -0.023316238075494766, -0.0005718132597394288, -0.020457573235034943, -0.0034458437003195286, -0.013398691080510616, -0.010755575262010098, 0.002300483174622059, 0.02178771421313286, -0.02863023430109024, 0.0066279880702495575, -0.014149988070130348, -0.02472868748009205, -0.008457333780825138, 0.0038499583024531603, -0.027764830738306046, -0.008589427918195724, 0.03494798392057419, 0.029187649488449097, 0.03779558092355728, 0.005951106548309326, -0.07103292644023895 },
{ 0.015857279300689697, 0.003844787599518895, 0.025176571682095528, -0.03710462152957916, -0.0009369743056595325, 0.01080382987856865, -0.014825557358562946, -0.0021151602268218994, -0.05287518352270126, -0.25236421823501587, -0.0008227650541812181, -0.03835038095712662, -0.005600795149803162, -0.012664143927395344, -0.009893764741718769, 0.0035082001704722643, 0.023665692657232285, -0.02867024764418602, 0.00039743693196214736, -0.019000720232725143, -0.025563746690750122, -0.004136686213314533, -0.022489748895168304, -0.027728665620088577, -0.01894191838800907, 0.03315332531929016, 0.030914604663848877, 0.03787687420845032, 0.006050071679055691, -0.07122021168470383 },
{ -0.05888228118419647, 0.005570033099502325, 0.024958493188023567, -0.03993620723485947, 0.0004046727844979614, 0.010853201150894165, -0.014730297960340977, -0.0022268739994615316, -0.049450986087322235, -0.05834357440471649, -0.00019688844622578472, -0.06562133878469467, -0.004523898474872112, -0.012886966578662395, -0.010359312407672405, 0.0025922106578946114, 0.02270141802728176, -0.029069799929857254, 0.006400687620043755, -0.019161714240908623, -0.026179028674960136, -0.008465309627354145, -0.029003294184803963, -0.03050493635237217, -0.017586704343557358, 0.037978872656822205, 0.028365161269903183, 0.03762578219175339, 0.005794485565274954, -0.07007825374603271 },
{ 0.0607580691576004, 0.004326104186475277, 0.024853749200701714, -0.03727833554148674, 0.006034890655428171, 0.011194988153874874, -0.013953259214758873, -0.0021802023984491825, -0.051748890429735184, -0.13388580083847046, -0.0009237384656444192, -0.1218818947672844, -0.004318240098655224, -0.011346581391990185, -0.00943086575716734, 0.0016201320104300976, 0.022764747962355614, -0.029334086924791336, 0.002509676618501544, -0.01958625018596649, -0.025265583768486977, -0.005223224870860577, 0.1613134890794754, -0.028138810768723488, -0.01867295429110527, 0.0406179204583168, 0.03104254975914955, 0.038123246282339096, 0.005936743225902319, -0.0701603963971138 },
{ -0.0040972488932311535, 0.004880294669419527, 0.024982061237096786, -0.03857776150107384, 0.005789301823824644, 0.010733605362474918, -0.014160571619868279, -0.0025182876270264387, -0.055806804448366165, -0.09317778050899506, -0.0021284769754856825, 0.14421290159225464, -0.0030277217738330364, -0.012570858001708984, -0.009813008829951286, 0.003767799586057663, 0.02327459678053856, -0.029766792431473732, -0.001204596133902669, -0.020896369591355324, -0.023752709850668907, -0.007122018840163946, 0.007039392367005348, -0.02801424451172352, -0.015267631970345974, 0.02443993091583252, 0.03094925731420517, 0.037793878465890884, 0.006001668982207775, -0.06937193870544434 },
{ 0.06716932356357574, 0.004467694088816643, 0.025031359866261482, -0.03867897391319275, 0.0025310227647423744, 0.01108642853796482, -0.014812526293098927, -0.0024285768158733845, -0.0538177415728569, -0.022200094535946846, -0.0007533760508522391, 0.12379364669322968, -0.004986109212040901, -0.012779192067682743, -0.009485624730587006, 0.0024871460627764463, 0.022660253569483757, -0.029408371075987816, 0.0038926061242818832, -0.015956245362758636, -0.02529596909880638, -0.01234754640609026, -0.1559666097164154, -0.02559860423207283, -0.006077519617974758, 0.033759936690330505, 0.031315144151449203, 0.037492331117391586, 0.0059463996440172195, -0.07312443107366562 },
{ 0.1043146550655365, 0.001883088145405054, 0.025140369310975075, -0.038368724286556244, 0.003822136903181672, 0.01050923764705658, -0.014347517862915993, -0.002483319491147995, -0.054710503667593, 0.0886690616607666, -0.0006911313976161182, 0.02248210832476616, -0.005525152664631605, -0.013899502344429493, -0.009221318177878857, 0.005105733405798674, 0.023309819400310516, -0.028293944895267487, 0.002595702186226845, -0.018074719235301018, -0.026385990902781487, -0.0029607138130813837, -0.0789320096373558, -0.028430355712771416, -0.006884066853672266, 0.03224805369973183, 0.030038511380553246, 0.03664674237370491, 0.005779843311756849, -0.06807059049606323 },
{ 0.005903454497456551, 0.004307753872126341, 0.02496286854147911, -0.03804175928235054, 0.002443407429382205, 0.011239134706556797, -0.013730560429394245, -0.0024465983733534813, -0.051367390900850296, 0.19633138179779053, 0.0024324795231223106, -0.04381353780627251, -0.004343532025814056, -0.013623413629829884, -0.010263150557875633, 0.0042984564788639545, 0.023884031921625137, -0.026191426441073418, 0.008355282247066498, -0.017957080155611038, -0.02330118790268898, -0.001121508190408349, 0.183906689286232, -0.02775292843580246, -0.0055188280530273914, 0.029129840433597565, 0.02979426458477974, 0.03537159040570259, 0.0056269122287631035, -0.06714937090873718 },
{ -0.15353593230247498, 0.0008659149752929807, 0.023663874715566635, -0.0398966446518898, 0.0038389733526855707, 0.0102080712094903, -0.013674390502274036, -0.002566062845289707, -0.04902265965938568, -0.006314232014119625, 0.0007244997541420162, -0.03593315929174423, -0.004990014247596264, -0.015081735327839851, -0.009128912352025509, 0.00011436937347752973, 0.023149333894252777, -0.024816662073135376, 0.0072876992635428905, -0.014584076590836048, -0.019919395446777344, -0.016068890690803528, 0.04936819523572922, -0.025344789028167725, -0.008336324244737625, 0.025158163160085678, 0.02925175614655018, 0.033621568232774734, 0.006258699577301741, -0.06593196839094162 },
{ -0.001380179775878787, 0.004025395028293133, 0.02436145395040512, -0.03507840633392334, 0.0042544468306005, 0.009362430311739445, -0.01342019159346819, -0.002478374168276787, -0.052722081542015076, 0.020225487649440765, 0.0007200796972028911, 0.08466411381959915, -0.002586887450888753, -0.014591885730624199, -0.009015734307467937, -0.004881611559540033, 0.0229361392557621, -0.022319361567497253, 0.006070937030017376, -0.023590559139847755, -0.014590882696211338, -0.017885563895106316, -0.04984703287482262, -0.020687248557806015, -0.011221237480640411, 0.01994108408689499, 0.02591061033308506, 0.029940510168671608, 0.006565106566995382, -0.06308446079492569 },
{ -0.04038303717970848, -0.0009820653358474374, 0.027774693444371223, -0.030529119074344635, 0.004094664007425308, 0.008799130097031593, -0.013371260836720467, -0.0024653004948049784, -0.04837219789624214, 0.0332806371152401, -0.0017583336448296905, -0.010451361536979675, -0.001833778340369463, -0.022385919466614723, -0.011782729998230934, -0.00921584665775299, 0.018354279920458794, -0.012364980764687061, 0.0076295617036521435, -0.029492517933249474, -0.006345223635435104, -0.02071213163435459, -0.032412413507699966, -0.012927547097206116, -0.022241540253162384, 0.027322806417942047, 0.020684584975242615, 0.02297666296362877, 0.00635186955332756, -0.06141826510429382 },
{ 0.005949006881564856, 0.00022387580247595906, 0.025198031216859818, -0.02900269813835621, 0.0033619736786931753, 0.009412093088030815, -0.015064578503370285, -0.002214391715824604, -0.05001125857234001, 0.08427615463733673, -0.002338769380003214, 0.16817902028560638, -0.004744865000247955, -0.021242575719952583, -0.007592500187456608, -0.007249034475535154, 0.018405379727482796, -0.005068175029009581, 0.011571562848985195, -0.02721792832016945, -0.007310541346669197, -0.027845267206430435, -0.028625844046473503, -0.012524858117103577, -0.014882388524711132, 0.021442091092467308, 0.018139328807592392, 0.019880123436450958, 0.0029419315978884697, -0.06078006327152252 },
{ -0.05741292983293533, -0.0024211425334215164, 0.029097219929099083, -0.03368985280394554, 0.0016111098229885101, 0.010024265386164188, -0.015876898542046547, -0.0017029590671882033, -0.05325600132346153, -0.07414441555738449, -0.002808696823194623, -0.005440168082714081, -0.006098472513258457, -0.021456575021147728, -0.008410459384322166, -0.005516317673027515, 0.01755298487842083, -0.0120459059253335, 0.007321161683648825, -0.018012207001447678, -0.012036108411848545, -0.025405757129192352, 0.05224986374378204, -0.011640661396086216, -0.011486716568470001, 0.013051493093371391, 0.02240125648677349, 0.01990826614201069, 0.0020654178224503994, -0.061133138835430145 },
{ 0.006618172395974398, -0.006873226258903742, 0.029017765074968338, -0.029366305097937584, 0.00557289132848382, 0.013803884387016296, -0.014420594088733196, -0.002383162034675479, -0.04754636436700821, 0.20202811062335968, -0.002246822463348508, -0.12668052315711975, -0.004695209674537182, -0.01592658832669258, -0.011698215268552303, -0.007025972008705139, 0.016548138111829758, -0.012331720441579819, 0.005787387024611235, -0.03451467305421829, -0.0177235696464777, -0.021159445866942406, -0.004192962311208248, -0.01191076822578907, -0.01302778534591198, 0.023615637794137, 0.026084642857313156, 0.023968378081917763, 0.0016505186213180423, -0.06841860711574554 },
{ 0.09019766002893448, 0.00016187064466066658, 0.028148094192147255, -0.03431811183691025, 0.009313113987445831, 0.01455003209412098, -0.013603702187538147, -0.0026138699613511562, -0.05368778482079506, 0.21555909514427185, -0.0023969949688762426, -0.0038982206024229527, -0.005596180912107229, -0.013828887604176998, -0.012860922142863274, -0.00800652988255024, 0.01577853225171566, -0.01408271212130785, 0.00856942031532526, -0.02703414112329483, -0.014214089140295982, -0.027363432571291924, -0.04378674924373627, -0.013293764553964138, -0.02084442414343357, 0.02781381458044052, 0.029544398188591003, 0.02804003842175007, 0.0058890036307275295, -0.07224369049072266 },
{ -0.10116507858037949, 0.0017809991259127855, 0.02785145305097103, -0.03085818700492382, 0.01119539886713028, 0.01454402506351471, -0.014849662780761719, -0.00027193260029889643, -0.05473676696419716, 0.034391965717077255, -0.010628377087414265, 0.08720111846923828, -0.009372798725962639, -0.009431906044483185, -0.007335149683058262, -0.011182691901922226, 0.018050415441393852, -0.019436391070485115, 0.006860461086034775, -0.025153135880827904, -0.014241321943700314, -0.020883070304989815, -0.06874804943799973, -0.014714723452925682, -0.01940140314400196, 0.02835109829902649, 0.027772238478064537, 0.028657501563429832, 0.00753492396324873, -0.07596889138221741 },
{ 0.064264677464962, 0.0017701832111924887, 0.027410227805376053, -0.028237435966730118, 0.012542580254375935, 0.014753509312868118, -0.01453022938221693, 0.002666542772203684, -0.05318537726998329, -0.1600106954574585, -0.016291622072458267, -0.1213718056678772, -0.0030667418614029884, -0.0010818272130563855, -0.007162718567997217, -0.015142987482249737, 0.021061956882476807, -0.028310703113675117, 0.0021629834081977606, -0.034734778106212616, -0.006226730532944202, -0.02240985818207264, -0.07824753224849701, -0.014508990570902824, -0.021021556109189987, 0.028111273422837257, 0.02947404608130455, 0.032892078161239624, 0.007040614727884531, -0.07007749378681183 },
{ 0.11693935096263885, 0.0004139239899814129, 0.024869345128536224, -0.035725947469472885, 0.004766624886542559, 0.015090130269527435, -0.015376278199255466, 0.001856431015767157, -0.05208824574947357, -0.11065912246704102, -0.009034473448991776, 0.0028493490535765886, -0.0014481412945315242, -0.0034596154000610113, -0.0105062834918499, -0.011908737942576408, 0.02299339510500431, -0.030714774504303932, 0.005672592204064131, -0.027256852015852928, -0.007127942051738501, -0.02422507479786873, 0.12985369563102722, -0.016486095264554024, -0.0202407818287611, 0.031259968876838684, 0.03000737726688385, 0.03539865091443062, 0.005281730089336634, -0.07124070823192596 },
{ -0.03545151278376579, 0.00499858008697629, 0.024584608152508736, -0.03951672837138176, 0.003796907141804695, 0.010405881330370903, -0.015612179413437843, -0.0010130546288564801, -0.05258167162537575, 0.053154878318309784, -0.008752068504691124, 0.07414168119430542, -0.0019759584683924913, -0.007393845357000828, -0.003309686901047826, -0.010542290285229683, 0.02276267111301422, -0.028556637465953827, 0.0017517320811748505, -0.02786332182586193, -0.010466760024428368, -0.019330089911818504, -0.016992725431919098, -0.017049022018909454, -0.014011645689606667, 0.02553381212055683, 0.027052130550146103, 0.0327284149825573, 0.005043743643909693, -0.0705772265791893 },
{ -0.021198201924562454, 0.0023975931107997894, 0.0250568650662899, -0.038566406816244125, 0.00218676938675344, 0.008986251428723335, -0.01321184728294611, -0.001914342981763184, -0.04976580664515495, -0.08406198769807816, -0.005045808851718903, -0.05078898370265961, -0.0011061386903747916, -0.006710126530379057, -0.005167568568140268, -0.005283534061163664, 0.02319478429853916, -0.02658030204474926, 0.008528843522071838, -0.01831023395061493, -0.015721630305051804, -0.012679834850132465, 0.0028109964914619923, -0.01573898456990719, -0.01384266559034586, 0.02983296662569046, 0.03003484196960926, 0.0311522725969553, 0.008688387461006641, -0.0665646493434906 },
{ 0.22899222373962402, 0.004783767741173506, 0.02570241689682007, -0.037645384669303894, 0.0002828029391821474, 0.010478463023900986, -0.01423889771103859, -0.002244864357635379, -0.051702093333005905, -0.10885097086429596, -0.00042694099829532206, 0.012609882280230522, -0.0017667842330411077, -0.007813168689608574, -0.009982254356145859, -0.0017657462740316987, 0.02274046093225479, -0.026878979057073593, 0.008381273597478867, -0.02448655292391777, -0.022974206134676933, -0.016079463064670563, -0.11744581907987595, -0.01887930929660797, -0.007004458922892809, 0.037514325231313705, 0.03021467663347721, 0.031138015910983086, 0.00784959178417921, -0.06786003708839417 },
{ -0.16979187726974487, 0.002550399862229824, 0.024580422788858414, -0.038549549877643585, 0.002997223986312747, 0.010637009516358376, -0.013884926214814186, -0.00274943676777184, -0.0553901381790638, 0.11112840473651886, -1.772690848156344e-05, -0.16134801506996155, -0.00376771274022758, -0.010735208168625832, -0.010634336620569229, 0.001589282532222569, 0.02376105636358261, -0.02975647710263729, 0.0028309228364378214, -0.024488894268870354, -0.02497173845767975, -0.008514071814715862, 0.02058473601937294, -0.02593156322836876, -0.012769967317581177, 0.027721082791686058, 0.03194192796945572, 0.03511771187186241, 0.006449372507631779, -0.0717897117137909 },
{ -0.032737165689468384, 0.004457691218703985, 0.0251422468572855, -0.038501814007759094, 0.002739469287917018, 0.010848539881408215, -0.015239022672176361, -0.0021947489585727453, -0.05187871307134628, -0.11852676421403885, -0.0017136972164735198, -0.01479249820113182, -0.004194104112684727, -0.010582736693322659, -0.011013302020728588, 0.002528214128687978, 0.025425439700484276, -0.028869224712252617, 0.006396179087460041, -0.023110993206501007, -0.0249556303024292, -0.0029751246329396963, -0.09317271411418915, -0.028828386217355728, -0.002860864857211709, 0.03742654621601105, 0.02620093896985054, 0.036785125732421875, 0.006522259674966335, -0.07027716189622879 },
{ -0.16992849111557007, 0.008866218850016594, 0.025390207767486572, -0.04180864617228508, 0.004925382789224386, 0.011063680052757263, -0.01433911919593811, -0.0029284211341291666, -0.047466885298490524, -0.0639617070555687, -0.0009212707518599927, 0.060445185750722885, -0.0033811014145612717, -0.013301849365234375, -0.010295375250279903, 0.004135658964514732, 0.02252470701932907, -0.02936471626162529, -0.00039254853618331254, -0.009951170533895493, -0.027500813826918602, -0.0006729933083988726, 0.04828331992030144, -0.027339648455381393, -0.006957226898521185, 0.028062330558896065, 0.02892758883535862, 0.037460390478372574, 0.005901207681745291, -0.07041136175394058 },
{ 0.14486044645309448, 0.009105982258915901, 0.025083234533667564, -0.03676384314894676, 0.003244431922212243, 0.011576536111533642, -0.014219142496585846, -0.002602339256554842, -0.05244813114404678, 0.018473424017429352, -0.00028667677543126047, -0.06963426619768143, -0.004711606074124575, -0.012137137353420258, -0.011420783586800098, 0.002432658104225993, 0.023435642942786217, -0.02962324023246765, 0.005957257468253374, -0.019314443692564964, -0.026710813865065575, 0.0003135377774015069, -0.0035008240956813097, -0.027713177725672722, -0.012348171323537827, 0.03136369213461876, 0.03022841364145279, 0.03741685673594475, 0.005798773840069771, -0.07151614129543304 },
{ 0.06574104726314545, 0.008275393396615982, 0.02507166750729084, -0.03867507353425026, 0.004987627733498812, 0.011021926067769527, -0.014517482370138168, -0.0026626731269061565, -0.05171412229537964, 0.08849365264177322, -0.000808297423645854, -0.017902961000800133, -0.004501568153500557, -0.011826668865978718, -0.009655353613197803, 0.0021676968317478895, 0.02407807670533657, -0.029740946367383003, 0.004029917996376753, -0.01770654320716858, -0.02678891457617283, 0.0009701522649265826, -0.08376098424196243, -0.027758711948990822, -0.007095763459801674, 0.03285931050777435, 0.03138887137174606, 0.0375271737575531, 0.005905928555876017, -0.06998833268880844 },
{ 0.011402149684727192, 0.004650054033845663, 0.02494211122393608, -0.036250289529561996, 7.963954703882337e-05, 0.010473771020770073, -0.014375589787960052, -0.002347503788769245, -0.05420444905757904, 0.1018800362944603, -0.0014285164652392268, 0.10857600718736649, -0.003547671716660261, -0.011987102217972279, -0.01118967030197382, 0.0036469094920903444, 0.024010587483644485, -0.02848692797124386, 0.0022175030317157507, -0.01709044724702835, -0.02463376522064209, -0.009469685144722462, 0.08638464659452438, -0.030352940782904625, -0.012990012764930725, 0.0384359136223793, 0.031327541917562485, 0.037594396620988846, 0.005891150329262018, -0.07046748697757721 },
{ -0.006745059043169022, 0.004954198841005564, 0.024993866682052612, -0.03854764252901077, 0.007375967688858509, 0.010521747171878815, -0.015047059394419193, -0.0025429758243262768, -0.053574107587337494, 0.08806945383548737, -0.0016059890622273088, -0.012005755677819252, -0.0027576598804444075, -0.01197908166795969, -0.00976578239351511, 0.0028506023809313774, 0.023782722651958466, -0.02912757731974125, 0.005297309253364801, -0.01978800818324089, -0.02492576278746128, -0.010903888382017612, 0.12197232991456985, -0.02736819162964821, -0.010950098745524883, 0.031755849719047546, 0.032570552080869675, 0.03746604546904564, 0.005811713635921478, -0.07010259479284286 },
{ 0.03505643829703331, 0.004403757397085428, 0.024930734187364578, -0.038907524198293686, 0.002873248653486371, 0.009603152982890606, -0.014295661821961403, -0.0025097597390413284, -0.04940591752529144, 0.0603090301156044, -0.0015153147978708148, -0.016850562766194344, -0.0031774030067026615, -0.012211395427584648, -0.010158472694456577, 0.0033287068363279104, 0.024098342284560204, -0.029329877346754074, 0.008523550815880299, -0.018909046426415443, -0.025035809725522995, -0.006766231264919043, -0.08987895399332047, -0.028580807149410248, -0.010757865384221077, 0.03438292443752289, 0.031011823564767838, 0.037807662039995193, 0.0056854356080293655, -0.07128807157278061 },
{ 0.17147928476333618, 0.009051583707332611, 0.02488997019827366, -0.038306187838315964, 0.0013463764917105436, 0.010996771976351738, -0.014356624335050583, -0.0024482998996973038, -0.051126591861248016, 0.17235170304775238, -0.0018206420354545116, 0.14160941541194916, -0.004464189056307077, -0.01339017879217863, -0.010731487534940243, 0.0018618315225467086, 0.023155033588409424, -0.02982463501393795, 0.0025144058745354414, -0.020398128777742386, -0.026140544563531876, -0.0062741562724113464, 0.033043645322322845, -0.028888264670968056, -0.011578692123293877, 0.03589685261249542, 0.02872656285762787, 0.03807109594345093, 0.005989340599626303, -0.07055549323558807 },
{ 0.05831204727292061, 0.00695760315284133, 0.024917563423514366, -0.03899269551038742, 0.0023074413184076548, 0.010138489305973053, -0.01416265219449997, -0.0024690560530871153, -0.04789753258228302, 0.05331754311919212, -0.0006065596244297922, 0.08120681345462799, -0.005171692464500666, -0.012810423970222473, -0.010095559991896152, 0.002907848684117198, 0.02379130758345127, -0.0287011731415987, 0.0025197744835168123, -0.020652368664741516, -0.025964267551898956, -0.008700497448444366, 0.020136220380663872, -0.028816623613238335, -0.012566597200930119, 0.027317773550748825, 0.029211420565843582, 0.03750770166516304, 0.005812386516481638, -0.06928189843893051 },
{ 0.020511656999588013, 0.0059794955886900425, 0.024901164695620537, -0.03852120786905289, 0.0033922409638762474, 0.010221574455499649, -0.015720393508672714, -0.0026843904051929712, -0.05355206876993179, -0.0012161270715296268, -0.0013461341150105, 0.0008630638476461172, -0.005238694604486227, -0.010878079570829868, -0.010582811199128628, 0.0043996223248541355, 0.02320198342204094, -0.029245838522911072, -0.0005121976719237864, -0.015207778662443161, -0.026631489396095276, -0.007337348535656929, -0.08998886495828629, -0.030198270455002785, -0.008636957965791225, 0.039077028632164, 0.029537493363022804, 0.037667419761419296, 0.005993155762553215, -0.07190760970115662 },
{ -0.013477899134159088, 0.006021793931722641, 0.02469916082918644, -0.0370560884475708, 0.00434845220297575, 0.01097975205630064, -0.01391057763248682, -0.002219709800556302, -0.0506846122443676, -0.08255095779895782, -0.0017094808863475919, 0.13602639734745026, -0.0042144982144236565, -0.013824600726366043, -0.009693908505141735, 0.004531246609985828, 0.021482883021235466, -0.028147157281637192, 0.0016490189591422677, -0.016971999779343605, -0.026295701041817665, -0.0113605922088027, 0.17813155055046082, -0.028723737224936485, -0.011908921413123608, 0.039114031940698624, 0.030827615410089493, 0.03635305538773537, 0.005615945439785719, -0.06870056688785553 },
{ -0.04950258135795593, 0.00631673214957118, 0.02497284673154354, -0.03990079089999199, 0.0025810913648456335, 0.01146914903074503, -0.013598914258182049, -0.0024362553376704454, -0.05175241082906723, -0.09740564972162247, -0.0025606220588088036, -0.055542320013046265, -0.003818558994680643, -0.011638038791716099, -0.010278595611453056, 0.0014950644690543413, 0.023692365735769272, -0.02724555693566799, 0.004366931039839983, -0.019388390704989433, -0.025695843622088432, -0.010997123084962368, 0.07191789150238037, -0.028564006090164185, -0.012199689634144306, 0.040439967066049576, 0.028547469526529312, 0.03710073605179787, 0.0058173066936433315, -0.07007531821727753 },
{ 0.01606416516005993, 0.007565372623503208, 0.024901138618588448, -0.03244221955537796, 0.005345761775970459, 0.011101020500063896, -0.012376753613352776, -0.0028551791328936815, -0.047521915286779404, 0.14422018826007843, 0.0007441565976478159, -0.02105611003935337, -0.003567320993170142, -0.013602573424577713, -0.009467839263379574, 0.0009313071495853364, 0.022684313356876373, -0.024530677124857903, 0.0044728834182024, -0.02987643890082836, -0.020552992820739746, -0.004676033742725849, -0.045298848301172256, -0.026018790900707245, -0.005437508691102266, 0.02420119196176529, 0.02841353975236416, 0.03401318937540054, 0.006083508022129536, -0.06525862962007523 },
{ 0.06515872478485107, 0.0011050982866436243, 0.02565726637840271, -0.0346248634159565, 0.0037735914811491966, 0.010134265758097172, -0.01090072188526392, -0.0032126454170793295, -0.047570306807756424, 0.03526049852371216, 0.0015714149922132492, -0.05622362345457077, -0.0020257756114006042, -0.017108339816331863, -0.008507031947374344, 0.0001932001468958333, 0.014739383943378925, -0.011974642053246498, 0.015573727898299694, -0.02474978379905224, -0.014023690484464169, -0.013902443461120129, -0.028128454461693764, -0.015803996473550797, -0.001958526438102126, 0.003347111400216818, 0.024532463401556015, 0.0210803784430027, 0.006888966541737318, -0.057246267795562744 },
{ -0.12279351055622101, -0.0030969283543527126, 0.02505139634013176, -0.022167883813381195, 0.004888937342911959, 0.00918863620609045, -0.010250370018184185, -0.0019483885262161493, -0.04254968464374542, -0.0726323053240776, 0.005548359826207161, 0.048395249992609024, 0.002032445976510644, -0.02577216736972332, -0.007298382464796305, -0.010290393605828285, 0.00881257001310587, 0.0034714285284280777, 0.0060814144089818, -0.024677911773324013, -0.0034157326444983482, -0.033936552703380585, 0.007074550725519657, -0.003625140991061926, -0.017019156366586685, -0.002581090899184346, 0.01382018905133009, 0.011374247260391712, 0.0028299333062022924, -0.04661894217133522 },
{ -0.20228800177574158, -0.013944970443844795, 0.02245667763054371, -0.0011056468356400728, 0.0067542484030127525, 0.00671409023925662, -0.009542006067931652, -0.0008781455690041184, -0.034597259014844894, 0.09746811538934708, 0.0043507772497832775, -0.020385582000017166, 0.0003302806871943176, -0.03074522316455841, -0.004059511702507734, -0.03655179962515831, 0.007009438704699278, 0.02840655855834484, 0.0053105042316019535, -0.0295947827398777, 0.02156824991106987, -0.050854988396167755, -0.044052474200725555, 0.027664506807923317, -0.0365767739713192, -0.046449221670627594, -0.0020773480646312237, -0.013091563247144222, 0.003629902144894004, -0.02672646939754486 },
{ -0.03711119294166565, -0.02104157768189907, 0.015933120623230934, 0.023086393252015114, 0.0034334876108914614, 0.004346503876149654, -0.01107071153819561, 0.0032598450779914856, -0.029713399708271027, 0.07470343261957169, 0.0008184705511666834, 0.1429838091135025, -9.776408114703372e-05, -0.0471104197204113, 0.002205998869612813, -0.05413477122783661, 0.004474127199500799, 0.07455618679523468, 0.01685362681746483, -0.03241007402539253, 0.039173971861600876, -0.06862391531467438, -0.08698412030935287, 0.06544710695743561, -0.035342779010534286, -0.05692240968346596, -0.027384383603930473, -0.04476889222860336, 0.00368129531852901, -0.010198960080742836 },
{ 0.03142937272787094, -0.03118736296892166, 0.007143321912735701, 0.022957818582654, 0.004910649266093969, 0.0040253521874547005, -0.011194556020200253, 0.007990471087396145, -0.028452733531594276, -0.044888295233249664, 0.013753454200923443, 0.05882573127746582, -0.0053774104453623295, -0.0614885538816452, 0.0051957410760223866, -0.07159343361854553, 0.00044263448216952384, 0.11375026404857635, 0.03508174046874046, -0.05415932089090347, 0.04570797458291054, -0.10958710312843323, 0.015619302168488503, 0.08166954666376114, -0.015526349656283855, -0.03364354744553566, -0.029353082180023193, -0.0423041507601738, -0.014784032478928566, -0.024488868191838264 },
{ 0.17739176750183105, -0.03461337089538574, 0.02218334749341011, 0.030848216265439987, 0.03480314090847969, 0.015985505655407906, -0.010032826103270054, 0.006338566541671753, -0.009228694252669811, -0.07346580177545547, 0.0052386801689863205, 0.094243124127388, -0.01040603406727314, -0.04057410731911659, 0.006013298872858286, -0.08262570202350616, -0.02674010396003723, 0.13440221548080444, 0.04171820357441902, -0.09095542877912521, 0.06671278923749924, -0.15210990607738495, 0.07484974712133408, 0.11533724516630173, -0.06415259093046188, -0.04160897433757782, -0.015842895954847336, -0.03538619726896286, -0.030823426321148872, -0.03848657011985779 },
{ -0.09798181802034378, -0.046909935772418976, 0.03040856122970581, 0.03591261804103851, 0.04553483799099922, 0.04055321589112282, -0.011126318946480751, 0.013571545481681824, 0.005913558416068554, 0.028403524309396744, -0.010430734604597092, 0.2640331983566284, -0.01920212432742119, 0.007683573756366968, 0.01649302802979946, -0.07753419131040573, -0.059351302683353424, 0.15635018050670624, 0.03297926485538483, -0.10792220383882523, 0.09768159687519073, -0.1960962563753128, -0.05030004680156708, 0.14177438616752625, -0.12180311977863312, -0.04358009994029999, -0.00385290733538568, -0.04716900363564491, -0.050573498010635376, -0.050423651933670044 },
{ 0.09346646815538406, -0.06373609602451324, 0.018603768199682236, 0.04922988638281822, 0.04342938959598541, 0.0697062537074089, -0.010868538171052933, 0.019852370023727417, 0.017109151929616928, 0.03705998510122299, -0.013904638588428497, -0.19507406651973724, -0.021027639508247375, 0.03290921449661255, 0.020932024344801903, -0.0876673087477684, -0.07427188009023666, 0.17120905220508575, 0.030139753594994545, -0.1406700760126114, 0.1328059881925583, -0.2097659707069397, 0.062459975481033325, 0.13868023455142975, -0.16238589584827423, -0.040659692138433456, -0.014940361492335796, -0.04816710948944092, -0.05365462601184845, -0.07054097950458527 },
{ 0.11237262934446335, -0.05992669239640236, 0.01300733257085085, 0.036021456122398376, 0.04295523092150688, 0.07040557265281677, -0.0124058173969388, 0.02277827076613903, 0.0025570823345333338, -0.07154606282711029, -0.029463812708854675, 0.0030196583829820156, -0.0038371412083506584, 0.062073878943920135, 0.03574918583035469, -0.10965181887149811, -0.06676330417394638, 0.12169157713651657, 0.014355060644447803, -0.14917896687984467, 0.13177447021007538, -0.18451401591300964, -0.049794141203165054, 0.11870560795068741, -0.17273417115211487, 0.012377915903925896, -0.01341046579182148, -0.053353410214185715, -0.032908931374549866, -0.08118098974227905 },
{ -0.06864120811223984, -0.05808247625827789, 0.012703350745141506, 0.024804159998893738, 0.05294438824057579, 0.052178505808115005, -0.011548839509487152, 0.023573337122797966, 0.02237866260111332, 0.13701723515987396, -0.06325991451740265, -0.09820100665092468, 0.006688530556857586, 0.13444024324417114, 0.04888235405087471, -0.14226210117340088, -0.046582188457250595, 0.042367611080408096, -0.004313743207603693, -0.14660660922527313, 0.13917331397533417, -0.191460520029068, -0.11794432252645493, 0.1492132991552353, -0.17720799148082733, 0.025605425238609314, -0.03298388421535492, -0.058225709944963455, -0.005407110322266817, -0.08199698477983475 },
{ -0.020418711006641388, -0.06415271759033203, 0.014857620000839233, 0.0016676628729328513, -0.0035372686106711626, 0.028030507266521454, -0.012388133443892002, 0.025902297347784042, 0.030950425192713737, 0.08673486858606339, -0.07091253995895386, 0.1767570972442627, 0.018580477684736252, 0.17998656630516052, 0.05253015458583832, -0.13329732418060303, -0.02738979645073414, 0.013860897161066532, 0.004063316620886326, -0.13325195014476776, 0.12809649109840393, -0.20037755370140076, -0.1111488863825798, 0.17390817403793335, -0.1515289843082428, 0.026471540331840515, -0.03748650848865509, -0.04207348823547363, -0.0010049024131149054, -0.07864043861627579 },
{ -0.04836254194378853, -0.05708441138267517, 0.017726272344589233, -0.025787293910980225, -0.06811393052339554, 0.008136189542710781, -0.012256466783583164, 0.026014650240540504, 0.015964021906256676, 0.03467714414000511, -0.08368062973022461, 0.017400072887539864, 0.021801937371492386, 0.19833999872207642, 0.051268186420202255, -0.10287150740623474, 0.0024172794073820114, 0.0038677621632814407, -0.004442731384187937, -0.07430806756019592, 0.10596957802772522, -0.15516649186611176, -0.22254116833209991, 0.15982994437217712, -0.11940895020961761, 0.044890452176332474, -0.03751211613416672, -0.031324222683906555, 0.02674727700650692, -0.05118900164961815 },
{ 0.032588496804237366, -0.042663950473070145, 0.021101152524352074, -0.033015184104442596, -0.08136643469333649, 0.008776240982115269, -0.006257885135710239, 0.020564444363117218, 0.012637156061828136, -0.1190028041601181, -0.07863393425941467, 0.15586505830287933, 0.0006952437688596547, 0.15347157418727875, 0.024844374507665634, -0.061475444585084915, 0.022769786417484283, 0.01561321597546339, -0.004279694054275751, -0.03548756241798401, 0.07365955412387848, -0.1024322584271431, 0.16049835085868835, 0.1071934774518013, -0.07771331071853638, 0.05045778676867485, -0.0368933379650116, -0.014959036372601986, 0.0340418741106987, -0.06100945174694061 },
{ 0.003180562285706401, -0.024970702826976776, 0.014611661434173584, -0.03513031452894211, -0.06315523386001587, -0.0005621457821689546, -0.0015482938615605235, 0.0149691766127944, 0.0062197353690862656, 0.00036002625711262226, -0.07938140630722046, 0.1447901725769043, -0.01954076439142227, 0.08646761626005173, 0.011702253483235836, -0.02918858267366886, 0.031535014510154724, 0.018414661288261414, -0.0038881422951817513, -0.028341036289930344, 0.058177877217531204, -0.06450530141592026, -0.08629351109266281, 0.059119824320077896, -0.0601542703807354, 0.0451461598277092, -0.027272159233689308, 0.0073852832429111, 0.013349173590540886, -0.06710651516914368 },
{ 0.049187928438186646, -0.017095429822802544, 0.021746596321463585, -0.03625059500336647, -0.030834777280688286, 0.01373832393437624, -0.002616681158542633, 0.013333012349903584, -0.0027214859146624804, 0.02565091848373413, -0.06904691457748413, -0.009512236341834068, -0.010870414786040783, 0.03843521326780319, 0.002605773974210024, -0.015206310898065567, 0.03138899430632591, 0.0018839294789358974, -0.0024799492675811052, -0.03877881541848183, 0.03676040843129158, -0.04695362225174904, -0.060556668788194656, 0.021784204989671707, -0.05051502212882042, 0.03918769955635071, -0.007901271805167198, 0.022384624928236008, 0.010266301222145557, -0.053838733583688736 },
{ -0.0670272707939148, -0.001958636799827218, 0.025496933609247208, -0.03710315376520157, -0.01264325063675642, 0.016547057777643204, -0.0069548869505524635, 0.007142375688999891, -0.01954900473356247, 0.005064501892775297, -0.03693908080458641, -0.11529280990362167, -0.0039367969147861, 0.006178082898259163, -0.0008743255748413503, -0.006780173163861036, 0.028189925476908684, -0.015657499432563782, 5.338876144378446e-05, -0.032935019582509995, 0.01004254911094904, -0.02906790003180504, 0.034127525985240936, -0.005391070619225502, -0.03593209385871887, 0.027299050241708755, 0.009089702740311623, 0.029694803059101105, 0.009549022652208805, -0.05775819346308708 },
{ 0.0033949664793908596, 0.001943639712408185, 0.02630292996764183, -0.03861038386821747, -0.0007453979924321175, 0.013654759153723717, -0.009578978642821312, -0.001354930573143065, -0.04750754311680794, 0.013207872398197651, -0.013384704478085041, -0.02847653068602085, -0.00435302359983325, -0.006774800829589367, -0.006681486498564482, 0.00046796377864666283, 0.02435811422765255, -0.025881163775920868, 0.006830019410699606, -0.02615039050579071, -0.013399602845311165, -0.017637910321354866, 0.13305945694446564, -0.021854620426893234, -0.009359152056276798, 0.037201832979917526, 0.021281089633703232, 0.03157834708690643, 0.006398478057235479, -0.06597469747066498 },
{ -0.13462916016578674, 0.005118601024150848, 0.02503831312060356, -0.03882508724927902, 0.0035820750053972006, 0.011320534162223339, -0.012416196055710316, -0.0023628361523151398, -0.04560530185699463, 0.1652238816022873, -0.005293217021971941, -0.16165190935134888, -0.002967980457469821, -0.008528106845915318, -0.007248608395457268, 0.0008248336962424219, 0.023132523521780968, -0.029769107699394226, 0.004657576326280832, -0.02045823261141777, -0.02167404443025589, -0.007904615253210068, -0.06562654674053192, -0.0264603104442358, -0.011499043554067612, 0.025209598243236542, 0.02911563217639923, 0.03528083860874176, 0.0047292560338974, -0.06948453187942505 },
{ -0.028819819912314415, 0.0038758779410272837, 0.02478230930864811, -0.04024195671081543, 0.0011228949297219515, 0.011222186498343945, -0.01439910102635622, -0.0025658304803073406, -0.05116063356399536, 0.16178935766220093, -0.0018858734983950853, -0.12668853998184204, -0.004117143806070089, -0.01136078778654337, -0.010306091047823429, 0.002564081223681569, 0.022274913266301155, -0.028990689665079117, 0.0034589755814522505, -0.018241064622998238, -0.023935969918966293, -0.008724682964384556, 0.18592752516269684, -0.026491397991776466, -0.013414557091891766, 0.028931157663464546, 0.028562240302562714, 0.03684474900364876, 0.004711603280156851, -0.07098409533500671 },
{ 0.1257048100233078, 0.003999845124781132, 0.025013986974954605, -0.03614028915762901, 0.0019442738266661763, 0.010847610421478748, -0.014790923334658146, -0.0025224194396287203, -0.052330732345581055, 0.04343237727880478, -0.0005510172923095524, 0.05484771728515625, -0.004213596694171429, -0.013789894990622997, -0.010496960021555424, 0.0025720582343637943, 0.02194668911397457, -0.028529396280646324, 0.008034191094338894, -0.013869413174688816, -0.027537038549780846, -0.0063457004725933075, -0.09492926299571991, -0.029117701575160027, -0.010442431084811687, 0.03500571846961975, 0.030690200626850128, 0.037869516760110855, 0.005944575183093548, -0.07048282027244568 },
{ -0.04453546926379204, 0.0016367275966331363, 0.025013655424118042, -0.038601815700531006, 0.004599883686751127, 0.010660233907401562, -0.014374561607837677, -0.002493153093382716, -0.04905206710100174, 0.08259554952383041, -0.0009369124309159815, -0.05824584141373634, -0.004048403352499008, -0.011664284393191338, -0.00965190026909113, 0.0036934881936758757, 0.023362277075648308, -0.027517789974808693, 0.002221242291852832, -0.02219894342124462, -0.024707233533263206, -0.005095618776977062, 0.0074539631605148315, -0.028567539528012276, -0.014223371632397175, 0.038514263927936554, 0.03333113342523575, 0.03765401616692543, 0.005792280193418264, -0.06975863873958588 },
{ 0.04503902420401573, 0.008969114162027836, 0.02480793371796608, -0.03930891305208206, 0.003925820346921682, 0.010293255560100079, -0.013384688645601273, -0.002291352953761816, -0.0507093109190464, -0.011726032942533493, -0.0015742656541988254, 0.03696485608816147, -0.0017270721727982163, -0.012808896601200104, -0.009484988637268543, 0.0031171480659395456, 0.022028012201189995, -0.028352990746498108, 0.003321863478049636, -0.014105474576354027, -0.02580641396343708, -0.004966133274137974, -0.015587741509079933, -0.02611849643290043, -0.012295800261199474, 0.03520432859659195, 0.027415920048952103, 0.03804824501276016, 0.005978137254714966, -0.07140839844942093 },
{ 0.0524093396961689, 0.005239520687609911, 0.02492130734026432, -0.03828338533639908, 0.0021056903060525656, 0.010340849868953228, -0.014706938527524471, -0.0019888223614543676, -0.05130999907851219, -0.1811126172542572, -0.0017237045103684068, 0.26634129881858826, -0.0055611892603337765, -0.013843388296663761, -0.010532584972679615, 0.00288933957926929, 0.02383965626358986, -0.028415489941835403, 0.002512142760679126, -0.01548577006906271, -0.02795768342912197, -0.006611434742808342, 0.04406377673149109, -0.030236007645726204, -0.004867431242018938, 0.030427884310483932, 0.028174854815006256, 0.037909019738435745, 0.00601284159347415, -0.07006455957889557 },
{ 0.06867369264364243, 0.005093561485409737, 0.02495812438428402, -0.038585368543863297, 0.005458298604935408, 0.011241869069635868, -0.014352358877658844, -0.0023749489337205887, -0.05026804283261299, -0.06770637631416321, -0.0007077523623593152, 0.193105086684227, -0.005076638888567686, -0.011129923164844513, -0.010104001499712467, 0.003852598601952195, 0.023513495922088623, -0.0296024177223444, 0.0014776719035580754, -0.019381554797291756, -0.0259273499250412, -0.00661046477034688, 0.058396290987730026, -0.028372328728437424, -0.011113792657852173, 0.036207448691129684, 0.03146625682711601, 0.03763900697231293, 0.005715630948543549, -0.0705372542142868 },
{ -0.060624681413173676, 0.0011209666263312101, 0.0251256562769413, -0.0347147174179554, 0.0022651702165603638, 0.010685802437365055, -0.014659613370895386, -0.0022849268279969692, -0.0521460585296154, 0.07404709607362747, -0.0018134524580091238, 0.04871440306305885, -0.004599477630108595, -0.011573877185583115, -0.010843232274055481, 0.0015822338173165917, 0.020653333514928818, -0.028113357722759247, 0.002449068473652005, -0.020688336342573166, -0.027974318712949753, -0.014657312072813511, 0.004951230715960264, -0.026948852464556694, -0.016571838408708572, 0.03201734647154808, 0.031424492597579956, 0.03773869201540947, 0.005923070479184389, -0.07102997601032257 },
{ 0.0016736852703616023, 0.003241191618144512, 0.024923035874962807, -0.03771185129880905, 0.004295861814171076, 0.010338331572711468, -0.014731315895915031, -0.0024366816505789757, -0.052914246916770935, 0.010234151966869831, -0.0005028563900850713, 0.10387329012155533, -0.004150209948420525, -0.012842527590692043, -0.008218051865696907, 0.003334055421873927, 0.02238459512591362, -0.028316717594861984, 0.002427735598757863, -0.015226089395582676, -0.02582603320479393, -0.012289756909012794, -0.08593503385782242, -0.026910176500678062, -0.013709518127143383, 0.0408913679420948, 0.03028973564505577, 0.03684195131063461, 0.0057260324247181416, -0.06974045932292938 },
{ 0.061542727053165436, 0.0006403588340617716, 0.026567967608571053, -0.036977797746658325, 0.0018650868441909552, 0.010557767003774643, -0.012314124032855034, -0.0002223462943220511, -0.04622945934534073, -0.03654904291033745, -0.0021024097222834826, -0.16275310516357422, -0.004867310635745525, -0.013796277344226837, -0.008600477129220963, 0.002827191725373268, 0.021100671961903572, -0.022655148059129715, -0.0005925892619416118, -0.017938675358891487, -0.024658072739839554, -0.013979594223201275, 0.1575314700603485, -0.02887849323451519, -0.007686298806220293, 0.02880985289812088, 0.02779993787407875, 0.036721788346767426, 0.004822778981178999, -0.06607397645711899 },
{ -0.011330102570354939, -0.001362817594781518, 0.026657313108444214, -0.03042837791144848, 0.001136355334892869, 0.011533111333847046, -0.008993475697934628, 0.004794320557266474, -0.03941904380917549, 0.05079201981425285, -0.005173421930521727, -0.05561589449644089, -0.005869912449270487, -0.018252013251185417, -0.007885227911174297, -0.0006410972564481199, 0.01600874960422516, -0.011587610468268394, 0.0050806342624127865, -0.0293422918766737, -0.01943867839872837, -0.01972336135804653, 0.02263469249010086, -0.01854417659342289, -0.001999453641474247, 0.009669155813753605, 0.015439129434525967, 0.03038385696709156, 0.0026508283335715532, -0.053007882088422775 },
{ 0.1292800009250641, -0.02005988359451294, 0.02829103358089924, -0.014073263853788376, -0.002069361275061965, 0.009714319370687008, -0.0034973416477441788, 0.014503269456326962, -0.019178317859768867, -0.03344773128628731, -0.00300717749632895, 0.09496022015810013, -0.008972608484327793, -0.023664943873882294, -0.011558836326003075, -0.010616746731102467, -0.0008169509237632155, 0.023684967309236526, 0.009929134510457516, -0.030279310420155525, 0.0006381142302416265, -0.043294817209243774, 0.092320017516613, 0.019617609679698944, -0.01598517782986164, -0.040095195174217224, -0.003912574611604214, 0.007596937008202076, 0.004822581075131893, -0.018562540411949158 },
{ 0.14809297025203705, -0.03723779320716858, 0.023159457370638847, 0.016024596989154816, -0.008820784278213978, 0.004072204232215881, -0.007229619659483433, 0.030984962359070778, -0.0042791422456502914, 0.12611261010169983, 0.005041413940489292, 0.05638478323817253, -0.008385051973164082, -0.029231728985905647, -0.00541148753836751, -0.04027494788169861, -0.013206174597144127, 0.06527857482433319, 0.005541482008993626, -0.04561487212777138, 0.02508082240819931, -0.06727422028779984, 0.02319621481001377, 0.06663087010383606, -0.0417168065905571, -0.10047104954719543, -0.027737228199839592, -0.01972626894712448, 0.007781386841088533, 0.015427877195179462 },
{ 0.050834402441978455, -0.06273873895406723, 0.005407609045505524, 0.05420394986867905, -0.01731305755674839, -0.014608072116971016, -0.013461432419717312, 0.04643564671278, 0.014469816349446774, 0.02893161028623581, 0.004241506103426218, 0.1358376294374466, -0.009433369152247906, -0.0330994687974453, 0.00010058801126433536, -0.09106771647930145, -0.02488422766327858, 0.12044767290353775, -0.00814025104045868, -0.03817351162433624, 0.06193295121192932, -0.1280137151479721, 0.027453631162643433, 0.1358785629272461, -0.06967831403017044, -0.1635502725839615, -0.07898512482643127, -0.06958838552236557, 0.020801855251193047, 0.07549050450325012 },
{ 0.17653846740722656, -0.08930811285972595, -0.026401150971651077, 0.06548818200826645, -0.043683212250471115, -0.02603166364133358, -0.02487800270318985, 0.057403936982154846, 0.010582784190773964, 0.028960077092051506, 0.01635565608739853, 0.007501971907913685, -0.035267725586891174, -0.054179802536964417, 0.009053850546479225, -0.12756161391735077, -0.019614949822425842, 0.1785942167043686, -0.002548930933699012, -0.030116716399788857, 0.06106778234243393, -0.1560492366552353, 0.23746559023857117, 0.17942507565021515, -0.05673664063215256, -0.15365391969680786, -0.11620835214853287, -0.11664411425590515, 0.026294579729437828, 0.11453674733638763 },
{ -0.2206512689590454, -0.10619205236434937, -0.03638612851500511, 0.03914661705493927, -0.06386160105466843, -0.024279698729515076, -0.03916485607624054, 0.059855058789253235, 0.009407052770256996, 0.08389165997505188, 0.018490878865122795, -0.042593132704496384, -0.03781483694911003, -0.05541463568806648, 0.011391809210181236, -0.1365222930908203, -0.00951278768479824, 0.19317808747291565, 0.027133755385875702, -0.008567176759243011, 0.06663066148757935, -0.15328088402748108, -0.0030792858451604843, 0.17825235426425934, -0.06363767385482788, -0.13910359144210815, -0.12053173035383224, -0.10751602798700333, 0.023060481995344162, 0.1514611393213272 },
{ -0.03630024939775467, -0.11200154572725296, -0.025172829627990723, 0.029943419620394707, -0.05214705318212509, 0.003761456348001957, -0.05333147197961807, 0.06584521383047104, 0.020389828830957413, 0.025253936648368835, -0.007477384991943836, -0.12706005573272705, -0.06396044045686722, -0.0008157219854183495, 0.03284141793847084, -0.12084665894508362, -0.012706508859992027, 0.19958297908306122, 0.02577289752662182, -0.028587546199560165, 0.09119652956724167, -0.18025369942188263, 0.07802264392375946, 0.1719922572374344, -0.13536304235458374, -0.13087154924869537, -0.13953085243701935, -0.0958915576338768, -0.013123209588229656, 0.1813463717699051 },
{ -0.07581476867198944, -0.13013942539691925, -0.04213438183069229, 0.03793608769774437, -0.03762543201446533, 0.05923870950937271, -0.06669913977384567, 0.07657050341367722, 0.03360868990421295, 0.23361700773239136, -0.03922168165445328, 0.17034533619880676, -0.1067252978682518, 0.06572870165109634, 0.069475919008255, -0.0957857146859169, -0.0075155035592615604, 0.22299078106880188, 0.02951667457818985, -0.06266481429338455, 0.12376046180725098, -0.22016876935958862, 0.09752709418535233, 0.12965500354766846, -0.17463292181491852, -0.1316036432981491, -0.14808326959609985, -0.09614105522632599, -0.05119606480002403, 0.19765467941761017 },
{ 0.034617435187101364, -0.14788103103637695, -0.06568100303411484, 0.05097810924053192, -0.022752730175852776, 0.08578454703092575, -0.07799578458070755, 0.07219614088535309, 0.05250154063105583, 0.114548459649086, -0.05661831796169281, 0.14003288745880127, -0.11418122053146362, 0.0999576672911644, 0.1229148581624031, -0.08198592811822891, 0.005788586568087339, 0.27263137698173523, 0.01489449292421341, -0.05368052423000336, 0.1284046620130539, -0.22001992166042328, 0.12510623037815094, 0.08713946491479874, -0.1551048755645752, -0.1146916002035141, -0.18310077488422394, -0.1204746812582016, -0.06339670717716217, 0.19487497210502625 },
{ 0.13862213492393494, -0.16278280317783356, -0.04934816062450409, 0.04156174138188362, -0.029555588960647583, 0.07137313485145569, -0.07989449799060822, 0.06824498623609543, 0.07445656508207321, -0.05485080927610397, -0.056741200387477875, -0.003056169953197241, -0.09762594848871231, 0.12947912514209747, 0.14633306860923767, -0.0693163350224495, -0.012831192463636398, 0.25017017126083374, 0.0006599765038117766, -0.020876964554190636, 0.1452629268169403, -0.180030956864357, -0.13976843655109406, 0.10169501602649689, -0.1300419420003891, -0.12215661257505417, -0.17654918134212494, -0.13819336891174316, -0.05537004396319389, 0.19627097249031067 },
{ 0.02608928084373474, -0.16469013690948486, -0.02908078208565712, 0.026186686009168625, -0.06536257266998291, 0.022899145260453224, -0.06342315673828125, 0.09621745347976685, 0.11407142132520676, -0.03993415832519531, -0.06803157180547714, -0.22970572113990784, -0.08354408293962479, 0.22538477182388306, 0.15671777725219727, -0.04540016129612923, -0.029259631410241127, 0.16257882118225098, -0.015754681080579758, 0.007131190039217472, 0.14936058223247528, -0.1989549696445465, 0.097596175968647, 0.17377272248268127, -0.14101016521453857, -0.11033690720796585, -0.1665499359369278, -0.13647115230560303, -0.013169173151254654, 0.216993048787117 },
{ -0.08340605348348618, -0.1601196825504303, -0.0012453835224732757, -0.012299394235014915, -0.1545150727033615, 0.002940555103123188, -0.023364340886473656, 0.09183849394321442, 0.11142013221979141, -0.08037610352039337, -0.0611012764275074, 0.089329794049263, -0.06667447090148926, 0.2135450839996338, 0.11912573128938675, 0.02929748222231865, -0.05797996371984482, 0.12252691388130188, 0.009963245131075382, -0.0024614871945232153, 0.1044430285692215, -0.18892619013786316, 0.15168751776218414, 0.17024999856948853, -0.1446930319070816, -0.0740567222237587, -0.1304081827402115, -0.10557406395673752, 0.03607241436839104, 0.25078052282333374 },
{ 0.13181644678115845, -0.11938078701496124, 0.0015656667528674006, -0.025328679010272026, -0.2113572210073471, -0.007246952038258314, 0.028065014630556107, 0.07564350217580795, 0.06963136047124863, -0.06684094667434692, -0.04416113719344139, 0.04145161807537079, -0.04051557555794716, 0.16698575019836426, 0.0885910838842392, 0.05100003257393837, -0.04641576483845711, 0.09227042645215988, 0.003568604588508606, 0.042118776589632034, 0.0661475732922554, -0.15584710240364075, 0.017379606142640114, 0.14674043655395508, -0.14839527010917664, -0.027691567316651344, -0.09274112433195114, -0.08275532722473145, 0.06825071573257446, 0.24443814158439636 },
{ -0.023455966264009476, -0.10590336471796036, 0.011994159780442715, -0.020657416433095932, -0.20505090057849884, 0.0068934522569179535, 0.06723164021968842, 0.06139085069298744, 0.0954827070236206, 0.023558765649795532, -0.08353224396705627, 0.06031738594174385, -0.03155439719557762, 0.11596915125846863, 0.05773540958762169, -9.710469021229073e-05, -0.04772220551967621, 0.1203414723277092, -0.007002429571002722, -0.0017509445315226912, 0.123418889939785, -0.15962916612625122, -0.1411258429288864, 0.1616346538066864, -0.13104328513145447, -0.0016826172359287739, -0.10902626812458038, -0.05377781018614769, 0.0665193572640419, 0.17039820551872253 },
{ 0.009623360820114613, -0.07762985676527023, 0.013559728860855103, -0.02876933664083481, -0.14448916912078857, 0.012378574348986149, 0.07410748302936554, 0.04981038719415665, 0.11700307577848434, 0.10442908108234406, -0.13189277052879333, -0.04311744123697281, -0.05856712907552719, 0.10369355976581573, 0.03891671821475029, -0.033192671835422516, -0.021970178931951523, 0.09873294085264206, -0.015416009351611137, -0.035228338092565536, 0.15951119363307953, -0.1611759513616562, -0.059510890394449234, 0.12692968547344208, -0.09575153887271881, -0.007785549387335777, -0.11111258715391159, -0.021165883168578148, 0.020778799429535866, 0.06311263144016266 },
{ 0.06750810146331787, -0.0485735759139061, 0.021417753770947456, -0.03253434970974922, -0.08905715495347977, 0.02521287463605404, 0.04353258013725281, 0.050191644579172134, 0.08936247229576111, -0.043010443449020386, -0.12382151186466217, -0.23556876182556152, -0.05481097474694252, 0.08691345900297165, 0.01828482374548912, -0.023608362302184105, 0.010858627036213875, 0.0379616878926754, -0.009992998093366623, -0.026323720812797546, 0.11605759710073471, -0.12152250111103058, 0.00354094454087317, 0.07483981549739838, -0.06784199923276901, -0.015220941975712776, -0.09041213989257812, 0.000722870696336031, 0.0012393379583954811, 0.01954737678170204 },
{ 0.02969338558614254, -0.031872473657131195, 0.029042502865195274, -0.0387687087059021, -0.043182697147130966, 0.016913840547204018, 0.01407845038920641, 0.03418172895908356, 0.04170716181397438, -0.06642929464578629, -0.08225781470537186, -0.07436081022024155, -0.030087176710367203, 0.05575093626976013, 0.008540869690477848, -0.005747913382947445, 0.02492140233516693, -0.008013080805540085, -0.0036263398360460997, -0.019011860713362694, 0.03959517925977707, -0.06878068298101425, 0.23101851344108582, 0.020127860829234123, -0.03256375342607498, -0.0028197956271469593, -0.04687739163637161, 0.010502024553716183, 0.007561499252915382, -0.0061226459220051765 },
{ 0.037400733679533005, -0.017215758562088013, 0.029247084632515907, -0.031875934451818466, -0.009674998000264168, 0.005952588748186827, -0.006533021107316017, 0.01005111075937748, -0.00034147858968935907, 0.14081592857837677, -0.047174401581287384, 0.14810657501220703, -0.005610381253063679, 0.02784794569015503, 0.0011908651795238256, 0.0017357756150886416, 0.024083789438009262, -0.024924008175730705, -0.010242940858006477, -0.017049167305231094, -0.010504627600312233, -0.031396061182022095, -0.013353314250707626, -0.01096461433917284, -0.014751016162335873, 0.011208243668079376, -0.003306976519525051, 0.02160579524934292, 0.007315650582313538, -0.027723699808120728 },
{ -0.19113045930862427, -0.00963493064045906, 0.026592794805765152, -0.035769183188676834, 0.0005049183964729309, 0.00840427353978157, -0.011491697281599045, 0.003269340144470334, -0.032762229442596436, 0.001968354219570756, -0.03014867752790451, -0.02461090125143528, -0.0016312571242451668, 0.011383521370589733, -0.004152902867645025, -0.0010992123279720545, 0.02472732402384281, -0.030118867754936218, 0.004441082011908293, -0.016399018466472626, -0.01792827807366848, -0.013867356814444065, 0.06351714581251144, -0.021855559200048447, -0.014848018996417522, 0.03180496767163277, 0.015122922137379646, 0.029601451009511948, 0.007324264384806156, -0.04522238299250603 },
{ -0.17066678404808044, 0.0005246116197668016, 0.02505083940923214, -0.03725479543209076, 0.004785705357789993, 0.011191288009285927, -0.013456935063004494, -0.0011431101011112332, -0.04749622568488121, 0.0009359823307022452, -0.0057501713745296, 0.10335834324359894, -0.003555707633495331, -0.009134262800216675, -0.008782285265624523, 0.0021645233500748873, 0.02359624207019806, -0.02879399247467518, 0.00374797941185534, -0.01615327037870884, -0.024843508377671242, -0.015067498199641705, -0.01875069923698902, -0.02558637410402298, -0.008342653512954712, 0.03219978138804436, 0.025735342875123024, 0.03604617714881897, 0.005301652941852808, -0.06674450635910034 },
{ -0.13993096351623535, 0.002402904210612178, 0.024828268215060234, -0.03996115177869797, 0.002987317740917206, 0.011194095946848392, -0.014468109235167503, -0.0023376597091555595, -0.052475277334451675, -0.09819453954696655, -0.001761792809702456, -0.05531442165374756, -0.003962883725762367, -0.01395200751721859, -0.009486295282840729, 0.0029840830247849226, 0.022304171696305275, -0.028133412823081017, 0.00018245719547849149, -0.025167647749185562, -0.02649417147040367, -0.007542774081230164, -0.026684826239943504, -0.028784828260540962, -0.008951130323112011, 0.032298337668180466, 0.029520895332098007, 0.037750907242298126, 0.0053474134765565395, -0.07113122940063477 },
{ -0.0006642698426730931, 0.004536050371825695, 0.025071166455745697, -0.03828715533018112, 0.004338523373007774, 0.010700255632400513, -0.014156367629766464, -0.00273003033362329, -0.05283033847808838, 0.1382773518562317, -0.002235758351162076, 0.13142696022987366, -0.003575847717002034, -0.01233590766787529, -0.010320174507796764, 0.002556393388658762, 0.022925304248929024, -0.028979234397411346, 0.007302807178348303, -0.015306140296161175, -0.02512000873684883, -0.004206606186926365, -0.0666433572769165, -0.028636176139116287, -0.01241952832788229, 0.03491412103176117, 0.028116736561059952, 0.03753052279353142, 0.0059745414182543755, -0.06940585374832153 },
{ -0.02407938428223133, 0.004865832161158323, 0.02510721981525421, -0.04105716571211815, 0.006014256272464991, 0.010513165034353733, -0.014037469401955605, -0.0022953578736633062, -0.05458929389715195, 0.04921204224228859, -0.00042452182970009744, -0.006679286248981953, -0.0038217566907405853, -0.011623247526586056, -0.010733160190284252, 0.002547570737078786, 0.0228754673153162, -0.028212806209921837, 0.0072089447639882565, -0.01795332320034504, -0.026218703016638756, -0.007091683801263571, 0.13460220396518707, -0.029944654554128647, -0.013523026369512081, 0.038868434727191925, 0.03412642329931259, 0.03744874894618988, 0.005792806390672922, -0.06818100810050964 },
{ -0.058521419763565063, 0.00554676866158843, 0.024905506521463394, -0.04039910063147545, 0.005161531735211611, 0.01113853044807911, -0.01482749916613102, -0.0026342892087996006, -0.05101162567734718, 0.11942645907402039, -0.0009615915478207171, -0.0935472697019577, -0.0033774017356336117, -0.011282469145953655, -0.010273248888552189, 0.0033975273836404085, 0.02230876311659813, -0.028311846777796745, 0.0019448744133114815, -0.019901663064956665, -0.02428579516708851, -0.005736989434808493, 0.029073571786284447, -0.02818797342479229, -0.011270672082901001, 0.03010638989508152, 0.029598865658044815, 0.03821444883942604, 0.0059774816036224365, -0.07091234624385834 },
{ 0.19274362921714783, 0.0021652737632393837, 0.025034314021468163, -0.038881439715623856, 0.004881845321506262, 0.01170340646058321, -0.014382272958755493, -0.0025180275551974773, -0.05222576856613159, -0.006802927237004042, -0.0016374742845073342, 0.04781215637922287, -0.004399859346449375, -0.014466976746916771, -0.01117495447397232, 0.0024676090106368065, 0.023588253185153008, -0.028220077976584435, 0.007689820136874914, -0.017849482595920563, -0.022809186950325966, -0.010535085573792458, -0.1547810435295105, -0.028859619051218033, -0.010872364975512028, 0.029102418571710587, 0.031105196103453636, 0.0380823016166687, 0.0056152306497097015, -0.07062965631484985 },
{ -0.13555514812469482, 0.0009569860412739217, 0.025275936350226402, -0.03718436509370804, 0.006079886574298143, 0.010092752054333687, -0.014877107925713062, -0.00259350030682981, -0.054004695266485214, 0.16575945913791656, -0.0020393007434904575, 0.02039615623652935, -0.0047868951223790646, -0.01086591836065054, -0.00934456568211317, 0.003259030869230628, 0.022468362003564835, -0.028935890644788742, 0.0010840591276064515, -0.021430986002087593, -0.025774486362934113, -0.009804561734199524, 0.055377401411533356, -0.025392448529601097, -0.009038093499839306, 0.031150706112384796, 0.02881138026714325, 0.0374014638364315, 0.006020627915859222, -0.06863516569137573 },
{ 0.08902687579393387, 0.0031134174205362797, 0.026265650987625122, -0.03588946536183357, 0.005349664483219385, 0.011005289852619171, -0.012473409064114094, -0.0017391263972967863, -0.04522152245044708, 0.12675373256206512, -0.00407260749489069, -0.07314588874578476, -0.003844643710181117, -0.01246869470924139, -0.00766417570412159, 0.005196765996515751, 0.019147319719195366, -0.024628905579447746, 0.004748950712382793, -0.023127155378460884, -0.02464592270553112, -0.005201166030019522, 0.0672532469034195, -0.02597085013985634, -0.009502517990767956, 0.01745954342186451, 0.025513609871268272, 0.036205388605594635, 0.004223213996738195, -0.0636063665151596 },
{ 0.17165157198905945, -0.01288797426968813, 0.025379603728652, -0.025965824723243713, -0.00034362415317445993, 0.01200407650321722, -0.009284192696213722, 0.008875535801053047, -0.035441454499959946, 0.057274576276540756, -0.005241239443421364, 0.25611624121665955, -0.008252196945250034, -0.013551038689911366, -0.013266242109239101, 0.004375675693154335, 0.007825114764273167, -0.0003488335642032325, 0.0034200295340269804, -0.015955863520503044, -0.016851849853992462, -0.026719506829977036, 0.031167620792984962, -0.009313223883509636, 0.005493186879903078, -0.0028095378074795008, 0.0090703209862113, 0.02853967621922493, -0.007021358236670494, -0.03507734462618828 },
{ 0.07895144075155258, -0.031196171417832375, 0.0211495254188776, -0.0004892473225481808, -0.013763759285211563, 0.009502937085926533, -0.004762744065374136, 0.02348504588007927, -0.0051375748589634895, 0.039790909737348557, -0.011471771635115147, 0.14239121973514557, -0.015170002356171608, -0.019627077504992485, -0.008176839910447598, -0.0019566849805414677, -0.008651163429021835, 0.043984174728393555, 0.009684033691883087, -0.02385164611041546, -0.006772193126380444, -0.04796211048960686, 0.01131347008049488, 0.022633163258433342, 0.01481842901557684, -0.047471024096012115, -0.012884770520031452, 0.014110355637967587, -0.018889261409640312, -0.009043975733220577 },
{ -0.13073301315307617, -0.04303247481584549, 0.01736452244222164, 0.040132131427526474, -0.03389960527420044, -0.0028435727581381798, -0.002359535079449415, 0.04017084091901779, 0.03014792874455452, 0.14990004897117615, -0.005525525659322739, -0.02844318561255932, -0.017152845859527588, -0.036401379853487015, -0.005568014457821846, -0.021734213456511497, -0.04181784391403198, 0.10830699652433395, 0.02342761866748333, -0.026196680963039398, 0.015921810641884804, -0.06594035029411316, 0.11063293367624283, 0.062227763235569, 0.015337035991251469, -0.1193099096417427, -0.04659884050488472, -0.016850654035806656, -0.015224780887365341, 0.03740820661187172 },
{ -0.029538534581661224, -0.05888865143060684, 0.009166381321847439, 0.0793130025267601, -0.06059025973081589, -0.022315004840493202, -0.015382814221084118, 0.08118268102407455, 0.046251725405454636, -0.06734267622232437, 0.006831937003880739, -0.005499817430973053, -0.018904123455286026, -0.0572681650519371, 0.006151145789772272, -0.06497862190008163, -0.07590655237436295, 0.14184756577014923, 0.03843042254447937, -0.008411774411797523, 0.047734830528497696, -0.09851635992527008, 0.061851706355810165, 0.07981781661510468, 0.015539298765361309, -0.21536369621753693, -0.06914990395307541, -0.05327563360333443, -0.00498916395008564, 0.10898885875940323 },
{ 0.11744704842567444, -0.035787180066108704, -0.01705736294388771, 0.11744262278079987, -0.07993049919605255, -0.05735749006271362, -0.02459629438817501, 0.1131586879491806, 0.04976535588502884, -0.10415703058242798, 0.019333358854055405, -0.06234952062368393, -0.02973087877035141, -0.09241112321615219, 0.0035167222376912832, -0.130864217877388, -0.09553331881761551, 0.15821398794651031, 0.05267636105418205, 0.03390836343169212, 0.058862924575805664, -0.09448235481977463, -0.04366890713572502, 0.06529470533132553, 0.018686996772885323, -0.25352028012275696, -0.08637891709804535, -0.11751382052898407, 0.041293077170848846, 0.1865420937538147 },
{ 0.04656730219721794, 0.02105187438428402, -0.05532174929976463, 0.12343323230743408, -0.14112596213817596, -0.09534668922424316, -0.014076795428991318, 0.15066546201705933, 0.048611242324113846, 0.15473541617393494, 0.03914038464426994, 0.11743765324354172, -0.06361238658428192, -0.11955834180116653, -0.029245750978589058, -0.1435859501361847, -0.10815424472093582, 0.13317714631557465, 0.06385928392410278, 0.09400637447834015, 0.05168100446462631, -0.027055490761995316, 0.04063555598258972, 0.01909654401242733, 0.04841949790716171, -0.23147204518318176, -0.10623636841773987, -0.16404706239700317, 0.06582994759082794, 0.2511639893054962 },
{ 0.1101374626159668, 0.038482192903757095, -0.06072288751602173, 0.08006605505943298, -0.16434502601623535, -0.09827595949172974, 0.003329518251121044, 0.14282356202602386, 0.07154373079538345, 0.13240039348602295, 0.04458202049136162, -0.03906125947833061, -0.06003901734948158, -0.08700960874557495, -0.07860816270112991, -0.12582717835903168, -0.13687849044799805, 0.06819760054349899, 0.06493305414915085, 0.1499595046043396, 0.05645529553294182, 0.046501386910676956, -0.13530108332633972, -0.009240509942173958, 0.05695388466119766, -0.22679755091667175, -0.06616100668907166, -0.15597587823867798, 0.057256121188402176, 0.26150646805763245 },
{ -0.005280580837279558, -0.03036654368042946, -0.06859464198350906, 0.07230522483587265, -0.17762726545333862, -0.02334524691104889, 0.015227901749312878, 0.14370475709438324, 0.10362888127565384, -0.014803317375481129, 0.021147722378373146, -0.018034152686595917, -0.03276699408888817, -0.03431134670972824, -0.04742591083049774, -0.14085838198661804, -0.17224575579166412, 0.06117405742406845, 0.0562966912984848, 0.12351156771183014, 0.0817604660987854, -0.00787893682718277, -0.03068222478032112, 0.018282994627952576, -0.03002314083278179, -0.20799928903579712, -0.014909236691892147, -0.15032507479190826, -0.0009383070282638073, 0.3355773091316223 },
{ 0.06481331586837769, -0.15728582441806793, -0.10389384627342224, 0.053667206317186356, -0.18230031430721283, 0.06418915092945099, -0.0033751584123820066, 0.14497415721416473, 0.11224336177110672, 0.04290681704878807, 0.014470958150923252, 0.008162025362253189, -0.012024044059216976, -0.005639862269163132, 0.06056848168373108, -0.16662223637104034, -0.1754419505596161, 0.09644018858671188, 0.0706293135881424, 0.1466086357831955, 0.0383940152823925, -0.05636422336101532, -0.24252307415008545, -0.02449452504515648, -0.06931827962398529, -0.13853096961975098, 0.0635104700922966, -0.17482677102088928, -0.05840280279517174, 0.33105406165122986 },
{ -0.10547296702861786, -0.24258960783481598, -0.11491659283638, -0.01945972815155983, -0.13052912056446075, 0.07916698604822159, -0.05280538648366928, 0.11820749938488007, 0.06932582706212997, 0.13067419826984406, 0.006081450264900923, -0.0792894959449768, 0.006759341340512037, -0.029234645888209343, 0.20786482095718384, -0.18954205513000488, -0.12616094946861267, 0.11267034709453583, 0.06526107341051102, 0.2108605057001114, 0.04260411858558655, -0.0758034810423851, -0.17712759971618652, -0.05297556892037392, -0.038585443049669266, -0.080166757106781, 0.07468626648187637, -0.19453783333301544, -0.13164520263671875, 0.34826210141181946 },
{ 0.1262444704771042, -0.2719327211380005, -0.060742948204278946, -0.1127149760723114, -0.06717868894338608, 0.007893727160990238, -0.11038819700479507, 0.07365435361862183, 0.09230852872133255, -0.03234691917896271, -0.05090408772230148, 0.09700464457273483, 0.01906179077923298, 0.011569753289222717, 0.32720422744750977, -0.20533402264118195, -0.08684974163770676, 0.11491674184799194, 0.012244772166013718, 0.23616576194763184, 0.12297216057777405, -0.12021219730377197, -0.07618134468793869, -0.010444791987538338, -0.04592737928032875, -0.03540078178048134, 0.03697649762034416, -0.22932204604148865, -0.15068167448043823, 0.3717851936817169 },
{ -0.11313565075397491, -0.25823521614074707, -0.052546411752700806, -0.13639189302921295, 0.02399134822189808, -0.05108460783958435, -0.13331051170825958, 0.08709722012281418, 0.11787419766187668, 0.029874995350837708, -0.032269734889268875, -0.033811140805482864, -0.05477965623140335, 0.031437523663043976, 0.36013689637184143, -0.14447499811649323, -0.06957117468118668, 0.06215468421578407, -0.029214702546596527, 0.1510506421327591, 0.11380447447299957, -0.1523171067237854, 0.0025954474695026875, 0.00423031859099865, -0.15387986600399017, 0.034716635942459106, -0.024782449007034302, -0.20024758577346802, -0.09224192053079605, 0.4088176488876343 },
{ -0.06929728388786316, -0.18424193561077118, -0.07501937448978424, -0.10432790964841843, -0.03632381185889244, -0.04125520586967468, -0.09874802082777023, 0.0845414325594902, 0.10607031732797623, -0.020037265494465828, 0.03257686272263527, 0.015716515481472015, -0.07378774136304855, -0.02126324363052845, 0.33730000257492065, -0.09002025425434113, -0.04908854141831398, 0.03322695195674896, -0.04430893063545227, 0.03188427537679672, 0.11165852099657059, -0.11018647998571396, -0.20876681804656982, -0.026937782764434814, -0.297063410282135, 0.07261662930250168, -0.07859063893556595, -0.1488766074180603, -0.06372920423746109, 0.37373507022857666 },
{ 0.09681949019432068, -0.15054689347743988, -0.08998078107833862, -0.09807153046131134, -0.1130068302154541, -0.024277716875076294, -0.011632836423814297, 0.09354674071073532, 0.07964882999658585, 0.09813570231199265, 0.02036178857088089, -0.010992509312927723, -0.05012764409184456, -0.05115841329097748, 0.25309038162231445, -0.07465460896492004, -0.06894027441740036, 0.016178153455257416, -0.04905010387301445, 0.03853170573711395, 0.11834021657705307, -0.07919680327177048, -0.021427439525723457, -0.05013161525130272, -0.29387539625167847, 0.042865823954343796, -0.05330544337630272, -0.11599443107843399, -0.004768265411257744, 0.4180459976196289 },
{ -0.05784006044268608, -0.12644866108894348, -0.09181372821331024, -0.06982846558094025, -0.1585545688867569, -0.02374129556119442, 0.05070178955793381, 0.1410837173461914, 0.10355979949235916, 0.0349867083132267, -0.00922158919274807, 0.1675790250301361, -0.010615560226142406, -0.06315170973539352, 0.19377237558364868, -0.11492257565259933, -0.11188541352748871, 0.03463801369071007, -0.06221822649240494, 0.0030778972432017326, 0.17607924342155457, -0.13620276749134064, -0.16912297904491425, -0.010864049196243286, -0.278866708278656, 0.032260578125715256, -0.07910049706697464, -0.07320548593997955, -0.008165044710040092, 0.3545549809932709 },
{ 0.06238458678126335, -0.12028367072343826, -0.04483050853013992, -0.012341548688709736, -0.14065255224704742, -0.02283165603876114, 0.07356354594230652, 0.13636082410812378, 0.1405899077653885, 0.050088927149772644, -0.06139449402689934, 0.012504220940172672, -0.03041602484881878, 0.029784534126520157, 0.13565649092197418, -0.10793738067150116, -0.0728173479437828, 0.008963431231677532, -0.0899476632475853, -0.004381069913506508, 0.1423466056585312, -0.17963898181915283, -0.08930084854364395, 0.0014489941531792283, -0.2870519757270813, -0.00614769384264946, -0.16713112592697144, -0.0685332641005516, -0.03029615432024002, 0.2784689664840698 },
{ 0.0053002662025392056, -0.14012999832630157, 0.00025552031002007425, -0.0017159777926281095, -0.14944623410701752, -0.02112319879233837, 0.04364379122853279, 0.10923349857330322, 0.17124350368976593, -0.014407350681722164, -0.08813495188951492, -0.05617070198059082, -0.027158843353390694, 0.11625324189662933, 0.09809033572673798, -0.07090416550636292, 0.0212640929967165, -0.011950286105275154, -0.07000766694545746, 0.05316693335771561, 0.07089320570230484, -0.1842348873615265, 0.17057491838932037, -0.00645854976028204, -0.1877848505973816, -0.07290182262659073, -0.18061423301696777, -0.07152006775140762, -0.0008637895225547254, 0.2083001732826233 },
{ -0.024887563660740852, -0.11214267462491989, 0.013568500988185406, -0.0058631449937820435, -0.11091060191392899, -0.017678216099739075, 0.004997557960450649, 0.06989767402410507, 0.1348160207271576, -0.07504598796367645, -0.09796980023384094, 0.140373095870018, -0.05244867503643036, 0.12111721187829971, 0.07376722991466522, -0.022546419873833656, 0.07913611084222794, -0.019203949719667435, -0.04287073388695717, 0.05517883598804474, 0.01835879124701023, -0.12122160196304321, -0.10087606310844421, -0.02842690795660019, -0.07158471643924713, -0.0735984519124031, -0.1371823251247406, -0.044911693781614304, 0.03400912135839462, 0.14046473801136017 },
{ -0.07964818179607391, -0.06800199300050735, 0.017483295872807503, 0.0027652624994516373, -0.04619795083999634, -0.01620781607925892, -0.013080282136797905, 0.03362687677145004, 0.06684990227222443, -0.006414268631488085, -0.06953179091215134, 0.08198181539773941, -0.045498237013816833, 0.08832823485136032, 0.04035833850502968, 0.009261262603104115, 0.06608925759792328, -0.018206190317869186, -0.03682759776711464, 0.012687457725405693, -0.009315039031207561, -0.05634676292538643, 0.03808508440852165, -0.017567850649356842, -0.03185058757662773, -0.05595254525542259, -0.08196084946393967, -0.011645222082734108, 0.02663886360824108, 0.08539152145385742 },
{ 0.07164376229047775, -0.023901337757706642, 0.016964610666036606, -0.014577465131878853, -0.009113065898418427, -0.0038464637473225594, -0.01834164932370186, 0.014506715349853039, 0.005533055867999792, 0.07872851192951202, -0.041928406804800034, -0.03672714903950691, -0.02501665987074375, 0.04521133750677109, 0.014115034602582455, 0.012823986820876598, 0.050042688846588135, -0.028210846707224846, -0.02514532394707203, -0.015926465392112732, -0.02058425359427929, -0.02158847264945507, 0.0610659122467041, -0.021291125565767288, -0.011318868957459927, -0.015113518573343754, -0.02930753491818905, 0.014265813864767551, 0.00908074900507927, 0.013347117230296135 },
{ 0.11027859151363373, -0.004330271389335394, 0.021299341693520546, -0.02825736813247204, 0.003883560188114643, 0.009652686305344105, -0.014315522275865078, 0.00048382888780906796, -0.03821796923875809, 0.04653818905353546, -0.010257505811750889, -0.03602812811732292, -0.014650749042630196, -0.004104044288396835, -0.005801969673484564, 0.010079016909003258, 0.03011941909790039, -0.02944345772266388, -0.0008165400940924883, -0.021752262488007545, -0.027140170335769653, -0.01060047373175621, -0.00768756540492177, -0.03050115890800953, -0.004701627884060144, 0.022264014929533005, 0.009986198507249355, 0.037523992359638214, 0.0005444022244773805, -0.04853009432554245 },
{ -0.06629100441932678, 0.010383469983935356, 0.02441359870135784, -0.037744659930467606, 0.004458922427147627, 0.010758692398667336, -0.014176415279507637, -0.0024594871792942286, -0.053042300045490265, 0.015479026362299919, -0.0008917964878492057, -0.06717003136873245, -0.004363061860203743, -0.012756934389472008, -0.009190112352371216, 0.004268172662705183, 0.02303193137049675, -0.028656387701630592, -0.001065121847204864, -0.018233930692076683, -0.02582182176411152, -0.004181997384876013, 0.027502235025167465, -0.027996238321065903, -0.008082112297415733, 0.03713034465909004, 0.03167632222175598, 0.0389002189040184, 0.0061178007163107395, -0.06568717211484909 },
{ 0.05281884968280792, 0.0032280655577778816, 0.024725226685404778, -0.038043249398469925, 0.003853322472423315, 0.010950097814202309, -0.013895820826292038, -0.002484323224052787, -0.05165662243962288, -0.12357527762651443, -0.001543714082799852, -0.16806001961231232, -0.003942766692489386, -0.010145260021090508, -0.008926142007112503, 0.0030820216052234173, 0.02247696928679943, -0.02960231900215149, 0.004176111426204443, -0.014585052616894245, -0.02540474943816662, -0.008664770983159542, 0.14457924664020538, -0.025895901024341583, -0.00973100308328867, 0.032171573489904404, 0.0279046893119812, 0.03739586099982262, 0.0058893137611448765, -0.06965823471546173 },
{ 0.15349790453910828, 0.006383865140378475, 0.024997232481837273, -0.03779008612036705, 0.004300262778997421, 0.010948783718049526, -0.014761916361749172, -0.0027108313515782356, -0.05086449533700943, -0.037387244403362274, -0.0008693186100572348, -0.0219116173684597, -0.004216242115944624, -0.01238120999187231, -0.010781950317323208, 0.002070370828732848, 0.02328735589981079, -0.02950446493923664, 0.0023675940465182066, -0.015425433404743671, -0.025564629584550858, -0.010972791351377964, 0.0989270955324173, -0.027601208537817, -0.008839819580316544, 0.030174188315868378, 0.029783377423882484, 0.037611283361911774, 0.006068871822208166, -0.07085002213716507 },
{ 0.005042070522904396, 0.0036644123028963804, 0.025028089061379433, -0.03902064636349678, 0.004847981501370668, 0.010965187102556229, -0.014725062064826488, -0.0024026965256780386, -0.05350346490740776, 0.10877154767513275, -0.0012283185496926308, -0.1141570657491684, -0.0023997100070118904, -0.011229603551328182, -0.010219362564384937, 0.0028243863489478827, 0.022411003708839417, -0.02899278700351715, 0.0016812272369861603, -0.017910124734044075, -0.023717941716313362, 0.007212595082819462, 0.11055021733045578, -0.028775794431567192, -0.00956256315112114, 0.032552629709243774, 0.031211495399475098, 0.03761657699942589, 0.005743289832025766, -0.07111591845750809 },
{ 0.05330132693052292, 0.007731195539236069, 0.024993591010570526, -0.038982123136520386, 0.0025710673071444035, 0.011222410947084427, -0.014280225150287151, -0.0023258773144334555, -0.05322487652301788, 0.13580064475536346, -0.0015146330697461963, 0.07985521852970123, -0.004082576371729374, -0.014451737515628338, -0.008787697181105614, 0.0029839319176971912, 0.023670194670557976, -0.027853194624185562, 0.005831517279148102, -0.018963756039738655, -0.027066417038440704, -0.008589484728872776, -0.04856133460998535, -0.028634056448936462, -0.008815440349280834, 0.031405795365571976, 0.030512064695358276, 0.0378396213054657, 0.00606524245813489, -0.0687326118350029 },
{ -0.03474953770637512, 0.0026759435422718525, 0.025129122659564018, -0.038173917680978775, 0.0034717381931841373, 0.00787985697388649, -0.012899266555905342, -0.005221768282353878, -0.04944866523146629, -0.029070038348436356, 0.0005643367185257375, 0.03838236257433891, -0.00288508553057909, -0.010224617086350918, -0.010152908973395824, 0.009400108829140663, 0.021639760583639145, -0.024913446977734566, 0.0031004196498543024, -0.011609616689383984, -0.025288231670856476, -0.011485791765153408, -0.06384681910276413, -0.021940266713500023, -0.0007140329689718783, 0.017520640045404434, 0.02942913956940174, 0.035291243344545364, 0.004748326726257801, -0.06605703383684158 },
{ 0.07182104885578156, 0.010232307016849518, 0.025501849129796028, -0.030869491398334503, -0.0017479839734733105, 0.009414464235305786, -0.008632506243884563, -0.003385648364201188, -0.04155401512980461, -0.11390595883131027, -0.003141233930364251, 0.036415524780750275, -0.0038424807135015726, -0.019115524366497993, -0.0058713993057608604, 0.020869126543402672, 0.006241458002477884, -0.009787308983504772, 0.003594111418351531, -0.014871686697006226, -0.022943902760744095, -0.01739664375782013, 0.13537883758544922, -0.01067746989428997, 0.015248885378241539, -0.0002752385044004768, 0.019577506929636, 0.032210350036621094, 0.004715275019407272, -0.0491681843996048 },
{ 0.04054950550198555, 0.001240233308635652, 0.02315402776002884, 0.005317887756973505, -0.01240226998925209, 0.004064064472913742, 0.0030145233031362295, 0.009379159659147263, -0.014269907027482986, -0.025578545406460762, -0.006862511858344078, -0.02242344431579113, -0.022484201937913895, -0.039603203535079956, -0.011055181734263897, 0.03732427954673767, -0.023984039202332497, 0.053056418895721436, 0.006347343325614929, -0.01121651940047741, -0.00457359105348587, -0.04007524251937866, 0.2119290679693222, 0.022963576018810272, 0.05929788202047348, -0.062161557376384735, -0.0075636194087564945, 0.013688527047634125, -0.014586245641112328, -0.005541540216654539 },
{ 0.04925374314188957, 0.00619439547881484, 0.016204385086894035, 0.0528135672211647, -0.026366421952843666, -0.01023856457322836, 0.019688492640852928, 0.022916264832019806, 0.0258957426995039, -0.026859041303396225, -0.0057139648124575615, 0.010173320770263672, -0.037647295743227005, -0.05500594154000282, -0.005818398669362068, 0.04199819639325142, -0.06922443211078644, 0.12304113060235977, 0.028560873121023178, -0.0022949192207306623, 0.008949740789830685, -0.04415131360292435, 0.10609545558691025, 0.037847165018320084, 0.07897663116455078, -0.14142170548439026, -0.0344000980257988, -0.01929352432489395, -0.038355764001607895, 0.026788529008626938 },
{ -0.025507058948278427, 0.022491034120321274, 0.012819076888263226, 0.10123758763074875, -0.05088650807738304, -0.028511054813861847, 0.03129275515675545, 0.04421458765864372, 0.03543508052825928, -0.02077082358300686, 0.0072091505862772465, -0.1656293272972107, -0.02827656827867031, -0.08217524737119675, -0.004554901272058487, 0.03944610804319382, -0.12430718541145325, 0.15314707159996033, 0.04066638648509979, 0.02846362069249153, 0.014499595388770103, -0.016494622454047203, -0.018963243812322617, 0.03504806384444237, 0.10623939335346222, -0.22468596696853638, -0.038943491876125336, -0.04698241502046585, -0.020580649375915527, 0.08583062142133713 },
{ 0.039795976132154465, 0.05290456488728523, 0.010272834450006485, 0.15715499222278595, -0.0786038264632225, -0.07327909022569656, 0.05412161722779274, 0.07830876857042313, 0.017273101955652237, 0.09389769285917282, 0.019780980423092842, 0.07005548477172852, -0.015840647742152214, -0.10419917851686478, -0.013615797273814678, 0.01101384311914444, -0.1870042234659195, 0.1434912383556366, 0.06902056187391281, 0.08950670063495636, 0.025812393054366112, 0.03742098808288574, 0.09226739406585693, 0.013651720248162746, 0.07884342223405838, -0.2727143168449402, -0.010347247123718262, -0.09447512030601501, 0.03021247498691082, 0.1281048208475113 },
